{-1.384681060532532, -0.48647294029858834, 0.20365809962546558, -0.33954433065264933, 1.165798652696895, 0.12688384606232875, 0.3275243111112492, 1.2289158592929432, 0.7884083378882808, -0.8984831758219587, 1.7175683520792628, -0.4136071236098091, -0.3422357018805653, 1.4753559789553592, 0.595558692330299, -2.2903953745781718, -1.8038507382298432, 1.2438575382253663, 0.12671137608980232, -0.3525652453576716, 0.3743303604368339, 0.9084293962856479, -0.31023775344019594, 0.7171698189023975, 1.1933127021480956, 0.8442705752859735, 1.484137955937196, -0.930685890945936, 1.5392694852051902, -0.4416399517442095, -1.2407189646409578, -0.23631616460675878, 1.0218494972635463, -0.914741412020597, 0.534413747402421, 0.635121683321491, 0.950073035700827, -0.6783655968059642, -0.1925929220419008, -1.690094535833296, 0.00001372935690679, 0.557126451490221, -0.2012750193692026, -0.48824390062063366, -0.7609568074376402, -0.6574884846162915, 0.9699673494913911, -1.6007045018870316, 0.2423319016291673, -1.9225546682673775, -0.234583401078398, 0.4386563746816598, -0.43633089678935866, 1.0246308692640667, -0.23216113215632392, 0.9942202380921223, 0.3077259848214053, -0.5524852329612138}, {1.25101029285293, -1.4010025463171123, -0.1305290142491734, 0.9430476048309425, -1.1074707057792936, -0.03959977788405113, -1.2362516884092813, -1.2911953852232512, 0.24044838560828152, 1.0678818614970198, -0.8597237547623785, 0.2853587462356728, -1.3173871829162629, -1.4606470911409115, 0.9817341989445633, -1.3932644401154377, 0.14736676177485358, -0.8724268548786258, 0.45341221590314873, -2.24215379105526, 0.20555412812929305, -0.23971320291252413, 0.39629205636205445, 0.5028026185634633, -1.6687748650221157, 1.4173055806971735, -0.8136449001427465, -1.5159174646542208, -0.024793122490210446, -1.513304340637177, -0.5816391218356103, -0.8722006132861381, 0.3131046214184513, -0.0069516314478108385, 0.7584397358445781, -0.2521048433531305, -1.452070159428484, -0.2757675797895838, 0.14103872759263014, 1.3668424923968368, -0.557124408378476, -0.46908991716564946, -0.3240660884654034, -0.261371419176477, -0.9443540420985483, 0.4640553683029169, -2.2446550270572776, -1.8037267640807155, 0.8426166539904194, -2.8790338281905994, -1.1942732075965088, 0.11396062787705322, 0.5041619404623751, -0.6850844638298444, 0.5865640140967703, -0.16724573985965988, -1.5264740723845733, 0.16675859370420834}, {-0.32757059518534604, 1.1008963022157834, 0.25725301920106347, 0.42859895496735245, -0.7651094265034353, -1.0284847628405174, -1.7811757338393757, 0.9312996589754783, -0.6457972222938065, -1.1324064964875828, 0.6025065337491082, -0.3063411988105575, 0.6491184493730517, 2.313062242562315, 1.2245264289293414, -1.1126909243257594, 0.6942012312857876, 1.7652273217210237, 1.8273677694337471, 1.5100929467153177, 0.7296511172361452, 0.195165041017799, -0.7482495424258113, 0.14931811968313397, -1.0496388003860706, -0.5606694737607474, -1.2231144850962914, -1.43031495137345, 0.777501177425422, -2.1345045680078103, -1.374846017638225, -2.3506202094024764, 1.6042811491342037, -1.5595751448517223, -1.5667631407298983, -1.1155117054962544, -0.2290451035632436, 0.694617258412718, -2.4915460689009845, 0.09253979057063101, -1.289851086420693, 0.631874440625647, 0.6594740088594283, 0.36887586004246337, 0.7419971568116316, -2.065352312394864, 0.06763385572055043, 0.4777193330805914, -1.0433574778046548, -0.4798762151242356, 0.8261683704398484, 0.05137244559604881, -0.3400473498705886, -0.42416104887617206, -1.6639490604022815, 1.065562801704584, 0.3594117661985107, 0.800539190026918}, {-1.67704765205485, 5.638806642949526, -2.7775338170993655, -7.583185693314857, -2.6582834102229898, 4.625453228242778, 1.640728312687188, -4.443978277590277, -3.1766342531199796, -12.218203081942569, -0.3210393835438322, 4.507532759195017, -4.465334194978803, 0.1815182192956479, 2.7771363540718252, -3.172296516880604, 5.4482769455158495, -0.8414715135629413, -27.42329753010216, -1.3992209698831342, 24.229659287279603, -4.0309622257238535, -0.7943192638896666, 2.54947071858443, 3.876544691671303, 1.2393356547719039, 12.799020239540438, -4.002524306516201, -3.7512635798016896, -4.714804635246588, 4.4489504923337, -2.0110501210146845, -4.0659880172521, 8.056408999684558, 1.2473690238842978, 4.011931564587835, 0.1529067157162728, 10.185233074004225, -1.6884256204351344, 3.388643516129935, 13.30489714704784, -3.200784600959084, -7.16958493655308, 2.6424950245440213, -5.142674404506119, -0.9035213044727192, 1.447883238346284, 6.089391010746542, -2.9385550082576306, -6.0497936122428335, 2.5909826201397297, -2.8422600437822614, -3.5430607048533567, 3.0872701879590227, 7.735757869390951, -0.05755810122419535, 0.4254085149886271, 4.855110471670343}, {4.00475303656864, -2.5560633278602327, 3.4336750033146286, -1.084385924886179, -0.13668615863834796, 1.1393703497611716, -0.6055960167350128, -0.23718811410261267, -0.09227699263625201, -1.0420580717481676, 0.30196745618780346, 0.35668380102670255, 0.24759437086690497, 2.025168431144103, 1.2820636999217212, -10.515596858785532, -3.562050583381243, 0.10466592339017826, 0.930153322521728, -1.1467660282933148, 1.0142089506831489, -1.7158984317735064, -1.8818042909290753, -2.500232432351584, -2.9754237191862116, -0.3570639560154604, -5.159933044674005, -1.6123102170499164, -1.4251081685783067, 0.22683092515544, -6.3773241784465, -0.7136501328549432, 0.5688177341810334, -3.814097721356803, 0.27422091154310396, -1.1099223965810476, -1.129488703929138, 1.1207870927090398, 2.090421673119184, 0.619562111111826, -0.9070114463188665, 3.0622299517108265, 1.8727272903936125, -1.2868306651006476, 0.0020565974256706756, -3.339810927174367, -0.23615094773362924, -0.4408394234782087, 0.35918180116584925, 0.25440937815141257, -1.0590580773502982, -2.4557121982230754, 3.882484858513627, -2.3939019679000917, -3.2329792029080187, -1.4597585487347786, 0.9378434385017819, 0.31487964264915336}, {1.1009391320724269, 0.9423463926225109, 0.0711008514412347, -0.7943075896175641, -0.06254409538048353, 2.093579362799087, 0.9531559474307638, 1.366331233339997, 2.07165285008178, -1.4452550489202782, -0.2732862778383824, 0.1845876813561122, -2.1375149991281894, 0.043797720607468726, -0.12631212259725966, 0.724310406154791, 1.5413673471808642, -0.404909721334951, -0.18552682573810897, 0.2964806386300353, -1.5911635175027359, -1.5081308673241747, 0.3735041315619543, -0.20854529342453706, -0.3786212868417452, 0.4343116169306897, 0.15416956191176387, -1.2084079993034709, 0.5062858355046388, -1.0717049446299889, 0.36341648419122147, 0.6065511483940599, -0.5161486531841007, -0.9625751018056375, 0.11557218831408182, -0.5934004863719871, -0.3072435649868214, -1.7794819647273261, 0.04929443266168364, -0.33711492644344904, 0.8243104514051576, 1.6505308044498088, -0.12307092297751944, 0.26450447913228325, -0.8567873503177166, -0.40737921508489344, 1.2879320026343888, -1.6431335752032292, 0.5187908216261413, -0.4794459619148369, -0.8036124647604822, -1.1925770687509496, 0.6617392340899598, 0.5621556615262955, -1.883878496690831, -0.8081263774815978, 1.0552077487036695, 0.5805294514818243}, {1.0961300731297174, -0.28580489671005743, -1.7294369296210974, -1.1716281391720507, 1.1378319902089251, -1.363017693362393, 0.4157097082593909, -0.26051267027412295, 0.314415438901081, -0.41366838079095014, -1.025513134364976, -0.30989202301055174, -1.3990106724961504, 1.2664457238202955, 1.567688817300267, -0.7148789297296814, 0.22972909072991854, 0.8820220988056804, -0.31261603003409794, -1.003690223428008, -0.7735264066873682, -0.08639108868193567, -0.13528427471041274, 1.8633147923538378, 0.6509312981087304, 0.9435163497479341, -0.632827899045025, 0.7678787232531602, -0.4799464342561794, 1.5478711449467875, 0.4803117892510094, -0.41274568480530605, -0.28095187548813433, 0.5467861430164842, -0.3920890762655499, -0.5147387386031188, 2.3446670209806273, 1.2769502012150735, -0.1235716474890332, -0.3413585551729118, -0.4069180110808873, 0.6909633472147984, 1.2386578981297742, 0.7089671153692602, -0.5296021536236115, -0.8571637547902339, 0.6705744382087518, 1.3102788477480385, 0.05369835501566477, 0.09033340171474512, 1.605666621004954, -0.34930692761992477, 1.618667801692355, 0.8578623179947465, 0.2177149470285516, 0.21986984742175597, 0.49950841936072155, -1.1736720600777157}, {-1.606649355415818, -0.03873883336648394, 0.10751644156573946, -1.4029201886218747, 1.384817129501222, -0.23621217939123046, -0.07806099068712148, -2.282812868798233, -0.9143117528703719, 0.9588644173883202, 0.5980450643091091, 0.7115145209239776, -0.1008210781224975, 0.5306290522510799, 1.0917057352451662, -0.9116459490674212, 0.9140913697106597, 0.7874835387161172, -0.3695342061525488, 0.09700328280486639, 0.45609721165431716, -1.1503316003219322, -1.606149109673459, -0.9864800886981345, 0.14380546144408998, 0.6053452840730188, 0.5828110503884129, -2.0712628651330216, 0.8181009752136215, -0.8487029925778032, -0.9338397417353228, -0.8062226782572196, 0.15449909678874488, 0.3031978842931846, -0.2501279476757703, 1.3737557228136306, -0.35656231364654384, 0.08940210492453875, -0.9070177367445794, -0.6844520200356973, -0.5935683740174259, -0.8775306126394034, -0.4630496718086904, 0.13756627846992048, -0.27737887682317103, -0.8973481052271884, 1.5077300139641556, 0.5814675939518094, -0.588311355979283, -1.5003962544589635, -1.9483252814881373, 0.3238661657145071, -0.1857187294742234, 0.16731429944857465, 0.5179670070570546, -0.8450169708013102, 0.15010087085573903, 0.5854845864691394}, {7.4004027926973395, -3.8449829419196715, 4.090575089911473, 1.7046160066788634, 3.211911862891143, 0.222372079880891, -1.3670892922260107, -0.19240300273259303, -0.21310784593993193, 5.74931594051398, 0.48527529447563666, -0.4710308975113246, 0.6083800634167291, 1.180627221187888, -2.3026725428415773, -13.10910959464249, -3.6966809601574773, -1.7616981879509348, 2.307741382052016, 1.2185401973181822, -1.538833665059787, 4.531191838145772, -3.378140746406194, -2.564918693823357, -6.294238762755922, 1.960104339016763, -6.571702780282643, -1.5587602453621578, 2.926101819277779, 2.0590517498087424, -12.026296038184672, -2.36502062776185, 0.9125651648368809, -5.718854195886791, 0.7551763357647356, -0.528274672983237, 0.7037806498320718, -2.4529103328617357, -0.8185464196606881, -2.023387544330634, -6.324038931104577, 1.4067821383732069, 3.0956809157628764, -2.725594444919546, 1.765334122107999, -2.858648687538185, 1.2577318440725909, -1.992759432876347, 1.8814354360332557, 3.492454641369665, 0.18880984825814476, 1.1823385384413174, 5.15775839255052, -3.575916313906102, -6.017427170824695, 1.3630579696514913, 1.0469745429921034, -0.9352409974300949}, {5.374457178464471, -2.6070125289936756, 1.5470638346449939, 3.755497634003302, 1.6525852244913686, 0.2900214986510492, 0.6771272806296631, 1.1503916213433705, -2.3908125219550707, 2.228775431475159, -0.8986404390624513, 0.22410692729506507, -0.388807208047364, -0.0371165830488852, -1.2139374962283618, -4.4897967868131206, -3.1524527648736274, -2.083089735670141, 3.806415104033057, 0.26981756017773045, -3.3216889115261377, 4.470336753074774, -1.4574137527226303, -0.3415456343791026, -3.167983722040261, 0.8427807801626376, -6.02865600621503, -0.21625827249655294, 0.7719706881584636, 0.5526989646987345, -4.730267780582129, 0.8790505585627039, 0.5831640926383016, -4.504470366649521, -0.07310395790627544, -1.3120971723098676, 1.0902332186230357, -2.7164386111679235, -1.2028544483207217, -2.648400101911338, -5.410708636513435, 2.728223588102279, 3.316613222782597, 0.47417970989508645, 2.2018160574945407, -1.115076745244487, -0.2500458688857233, -1.1266823638059695, 1.1524655313872905, 2.0804803277779, -0.9699277987287248, -0.8681156974114724, 3.7561263013703146, -2.65385892832082, -6.153933060763822, 0.6812884083143768, 1.296235404569099, -1.3864642845154236}, {1.5827325444871245, -2.620458655263198, 2.1177593757325273, 1.304894996346496, 0.7589923102239668, 1.8433536405053281, 2.958236123086624, 1.404162083316067, -0.4783622249000701, -1.9951236933291554, -0.05572611058223095, 0.7326303919433805, 1.9326996652906472, -0.5210630623671512, -2.46221541976104, -1.852670474449431, 0.9490627748207218, -0.2322771843565789, -0.3906857485230611, 1.34999506240734, 1.888738354679298, 2.5480411068343067, 0.0001290929743191085, 0.3719837972296562, -1.4066722818486497, 1.5299565705791254, -2.045760742537823, -1.5130223054872198, -1.9285650221736603, -0.5692666623736894, -0.4915880055749324, 0.7661726026406387, -0.623022063663731, -1.141138534372744, -0.17201608871618768, 1.7785727359453465, 0.2931915832094862, 0.15720430236849398, -0.8916653285519264, 1.9494330868385232, -0.9850874631796204, 2.2818685731374844, 1.4412944156629992, -0.6690781507234409, -0.9559808326773589, 1.1083820844070622, 0.4112573362552871, 1.9515717615501056, 0.6834906511091421, 0.06274859290170456, -0.8198252951202214, 1.277088992965841, 0.1421777450259526, -0.8389874021930968, -0.22696456519175867, 3.050679516397692, 1.2162087916509918, 0.4162753386970514}, {1.8380157370804602, -2.783881588020148, 4.471107858971581, -0.9345482353855723, -1.0525631161668707, 2.8954848742106316, -0.426035115446062, 0.8606485269142004, -1.826569106667926, 0.6496194213465469, -0.06076748351977663, 0.11322751054910384, -0.315815210363882, 2.240818441006828, 2.053940496769764, -8.405674410978353, -2.351980322228707, 0.7242065905695433, 0.25762931610723827, -0.3253022229562135, -0.9929621743259961, -0.5460613929485987, -1.424517680528805, -1.4547704433907303, -1.7934190735154987, 0.3305278836016802, -6.574880572550458, -0.6912067098155197, 1.3827975923420663, -0.4622496296472698, -3.7019207250654675, -0.7168903572502063, -0.5634751095288671, -3.6188495554166202, 1.7254046236098535, -1.3267741298951736, -3.327269404695168, -1.2517080216281982, -1.840493478993151, 0.5015461016904386, -1.2567432666909473, 2.45941096219767, 3.030150608283002, -2.071818350934508, 0.28127875488200893, -2.921158061831251, 0.7503166492424578, 0.446239838614377, -0.7598134124718627, -1.2781287231165697, -1.7101966281592413, 0.008291348081550782, 1.9113485483408266, -2.3156420365307233, -2.9330799555965625, -0.42628680849389156, 2.3267285250986065, -2.0057857523650564}, {21.590216282767454, -30.3925053683625, 18.205601440395036, 27.630634351289235, 15.903639982498133, 0.30935210144816555, -0.46370636445775854, 6.132932658968375, 6.129866943596222, 10.261634200236623, 4.909951423600935, -3.25102264330546, 1.7764900998910282, 3.842449456241627, -16.55268245491834, -29.916554996911113, -19.08319745834495, 8.548216531401804, 30.224087356737744, 4.005150073534027, -26.181188124005743, 21.848771758268533, -4.044881801666872, -4.6749674884214825, -33.51346720722223, 5.532453300246245, -33.81175837520936, -6.792953394604571, 6.909488174684682, 12.995146420724328, -34.02727589816261, 1.093241863623542, 8.660671251554012, -26.18448923471213, 3.217616254567178, -7.672455904632779, 4.892789930982301, -34.41327082461842, -8.477675002654566, -8.460204389128352, -36.33550205226501, 12.96450356765885, 26.348594565551767, -19.275775307375742, 18.129501884499536, -5.391231042399762, -1.873354805155721, -14.865467679117927, 8.408170503086037, 23.507148545736452, -8.768113007836705, 6.369849441504596, 24.210073654771566, -23.169079490288272, -36.11353517390884, 17.791944354074584, 2.0864553748983874, -17.167572972652106}, {-0.4750572312971942, -0.8969000681037347, 1.649277198656775, 0.3595886593025419, 0.025341116532743038, 1.1244988425520306, -0.587551639160833, 0.925477806407331, -0.20915362159144138, -0.4515202193882192, 0.3945505450633843, 1.0382978183525304, 0.8167612191643513, -0.42983800115461357, 0.10550303269336592, -0.14319879573110478, 0.011799162901801509, 1.9881290498385344, -0.690972360607482, 0.0882117047888236, -0.43389526468233, 0.8580178214047072, 2.8753520635233167, -1.0254103697056394, -0.912002860404225, -0.7550235207495949, 1.0343646902756565, -0.8198911206124413, -0.10062766063438702, 0.5964989494428595, -0.47460341640612264, -0.6930697045013388, 1.077932243975007, 1.1396091251921234, 0.6602054019781561, 1.8209866974700446, -0.10784759444802271, 0.7758200160480362, -0.0396210928284341, -0.6112038263442148, 0.08277189372953406, -0.06337096658551568, -1.7584159305573723, 0.17321876372244963, -0.5452677072984993, 0.3172347015921255, 1.5943458965618253, -0.10424106816741979, -0.7006995243256893, -0.5966467423894741, -1.5885512647334852, -1.4187215307550305, 0.7123999703853802, 1.2276093707149625, -1.419349481820018, -0.1933038170147487, 2.7142016790864547, -0.33072832098645905}, {-7.271201724522253, 13.269451882760753, -6.631402430145066, -14.212445469685356, -1.7530139449458706, 4.6184898707187, -0.021523719781669264, -6.981731971597374, 0.14046054527674612, -10.215851056049232, 0.6101810183156566, 4.77684311516467, 4.943936008788938, 2.732066520250962, 3.5109214926093144, 10.106017950358922, 5.9443240637363886, -8.524122437913293, -8.973407894714816, -4.489677682104879, 8.790736832824239, -5.754238017091862, -5.03878731227611, 4.772864926339514, 10.240063062896999, -5.173485962005621, 5.935469112614642, 0.4428837886459766, -9.162159037609483, -8.634216177262074, 8.59539951821511, -5.787740160822385, -7.409831721007657, 10.225670902466167, 3.7558590816283037, 3.2293233179382033, -0.09548748088386742, 16.26736263396233, 1.674872488625699, 2.140120321369862, 9.35785306120771, -3.4423174107631462, -12.567944374370997, 10.001480925112073, -7.681757763011743, -3.179954764714606, 1.6716633388756799, 7.222988567793885, 3.153483851245143, -10.520747458493528, 3.063619249310909, -2.7286266758678925, -9.398234663338222, 10.698449036393015, 9.274802162372346, -4.90783677892226, 0.9851788658141385, 5.716862859722516}, {-1.3382224053324985, 0.1279614276161601, -0.1477189294501921, -1.4837946331558045, 1.0523999135105744, -0.0063247768716473305, -0.5297503409183429, -0.11754216827025477, 0.523083891324299, -1.3020320371351635, -1.3362196327356417, -0.45280264053015407, -0.6597362778748951, -0.1141079032472666, -0.004748906076792156, -0.5051322010099799, 0.6671899939139336, -1.4017352368901397, 0.6870406571357689, 1.9243744987802052, -1.3324001615847787, 0.35593698244730276, 1.0463532867640397, 0.5108482837069473, -0.9850772905213102, 0.08752572451115227, -0.2449623938901334, 0.6015082849929665, -0.3646821973318892, 0.26735525944820365, -0.10346743726273197, -1.6401157044212773, -0.5625164723677071, -0.3143091494058844, -0.14596514134014832, -1.0963970591637218, 0.004798382354714171, 0.44957075229606436, -0.567070973365409, -0.7729607949024562, -0.9017237665705495, 0.935817023108543, 2.040812977737373, 0.842772265257906, -2.8185899360219144, -1.4902501131175916, -0.03229813595068817, 0.7797773930445122, -1.0559934957929757, -0.6757777793317938, 0.9228857211834837, -2.4036929336758366, 0.28239321935926504, -0.38721801779128784, 0.9438036079248582, 0.08041142811671421, 0.4940394944835373, -1.813947780790382}, {2.2517918823410734, 1.4725712070720463, -0.008501357313306429, 1.3205360723659672, -0.15431253772363276, 1.700835647248914, -0.6583289810466236, 0.7124859315701265, 2.2137461913572163, -1.0425041066342158, -0.7938398810747298, -1.661284216071178, 0.9168882588811866, 1.7109325413934555, 2.082332733933366, -8.929558398539331, -1.1086165076445065, 1.4241247509720483, -1.4475917701151662, 2.6395663235261666, -1.7279273782000644, 1.3121837593236616, -2.7038017254272777, -1.3317942433751067, -2.2268941166527103, 1.0137209698263447, -4.459581580375552, -0.9061341284923778, -0.43622537226806696, -0.6309070777399289, -3.314769454285181, -3.0638407983286227, -0.7864033543225629, -3.1795291014172613, 1.8859840912737222, 0.6968179584627457, -1.6942442647546172, 0.24896993745696833, -1.668864620053098, -1.0373575376459396, 0.8548838408653912, 1.069710178281936, 1.178734380083405, -0.7283838636524247, 0.0969310886253522, -2.4561415952805605, -0.8475932801743568, -0.6561246406060115, 0.2570297512159882, -3.502643994850415, -0.1333493937806076, 0.8913773570770782, 0.9303122197228137, -0.06822296870522368, -0.7556320072813152, -1.1468108023049974, 2.5305803109498917, -0.7523928048549203}, {4.177473189512449, -2.002657003207414, 2.7280946309926333, 3.249659683864863, 1.2749014933012282, 1.990399035810532, -1.0650665245663045, 1.8545832634606545, -0.6915058118401787, 0.42536236089696633, 0.383890201958432, 0.9170563515098228, -0.26829073083044996, 0.027812725338893955, -0.716557129083577, -7.266032826492135, -1.6621947335732514, -0.5795828606767334, 0.6283431414526757, 1.6801183936421566, 0.37826253440186364, -1.4183062060650762, -0.3080836104703735, -1.4298803137441238, -3.748100850696669, 0.32666352917851293, -4.267395575993017, -2.9106174817801804, 1.4207902728698976, 1.9652378538947204, -4.394414524359883, -0.29899247712655946, 2.254706053413314, -2.2017118323580047, 0.7148766628208414, 1.1211321166014894, -0.3949445417639553, -1.2615914688927128, -0.9420108787126839, 0.37617953122747066, -0.7479531355923188, 1.0830504004787191, 1.3960086393331492, -1.3280012153148508, 1.6532582419215978, -2.951816515911227, -0.15656940559829854, -1.7047180946824607, -0.7878980262348573, -0.25957418156260254, -3.347247398397634, 1.4424117019972003, 2.2510727748798804, -2.215291401767931, -3.605160124559354, 0.013681915288425365, -0.2092480694141475, 1.5272804948350358}, {1.5424639762401617, -1.3536730130021633, 0.4164890493885875, -1.2870692194850317, -0.13683781833499184, 3.04958125634914, -1.2435669630368649, 1.3648372567141747, 0.6949563699412838, -0.42533624909750356, -1.2734976711109067, 1.4878137483926905, 0.0712887536107719, 0.8326929725072999, 1.5037739663054488, -8.288739255217154, -2.239415995998453, 0.9683621608184456, 2.5833429453436167, 0.4757923660230628, 1.259116437439665, -1.4110115262897778, -3.319942814572071, 0.5873413312503711, -3.5149318407286176, 1.439842855813425, -3.6249514143347104, -0.015380355148970857, 0.7774721485137668, -2.79422651943181, -3.7186070938450295, -2.011758654527373, -2.774470153224493, -2.240565382587015, 1.671440390512126, -1.3100266125863924, 0.5766080877307618, 0.4098471194737365, -0.17054877370989546, 0.6854222330839499, -3.242998838726804, 2.2034774622881477, 0.833426660233165, -0.6497187834265121, 0.1516851012852726, -1.602008393505688, -0.5589810091402709, 2.8293276371969442, -0.7805313723102687, 0.08028640810599894, 1.3301183520306414, -0.7304083278101349, 0.16797368453571074, -0.30912230859588236, -2.403297233645892, 0.17330671843901185, 1.6567349215493272, -0.677442534895604}, {2.9917913050774563, -1.6595240481611881, -0.271264626121167, 1.496764518469464, -0.23380740398229077, 1.1534840942605806, 0.0928622933588066, 1.5596769210914907, 0.06253745808451937, 1.092225970305693, 0.7759344858146091, 0.04227617149618516, -2.1099285689891616, -0.3464223149122234, 0.9513515229156528, 0.10373881841347438, -0.13061694831406126, 0.04623617168772535, -1.5304939911327542, 0.9771414507216359, -0.6090530176792424, -2.3302030615571194, -0.5809970703046082, 0.9551873755672385, -0.2549892118712659, -0.19855685063545325, -1.5185015707979732, -0.3524956835295557, 0.16624043124568716, 1.3462286370007261, -1.122463891020725, 1.6483979165236127, 1.9231831103468056, 0.9501872235359539, -1.8864529279197173, 1.3841668658259834, -0.6026744870903483, 0.03589024578432634, -1.0324836323717301, -0.31505339945324357, 1.7043999800051919, -0.12472528121250546, -0.9653565840323974, -0.81340678895924, 0.5219663175874318, 0.7561771658392954, -1.3135760636356861, 0.03568045062753987, -1.7432966587905367, 0.505327968166884, -0.8632936900048018, 0.5131295619217949, -0.6744959731881139, -1.550001504739991, -1.21905777871864, -1.4700705317657592, 0.6136536226328194, 1.5846250371029835}, {1.607372183935611, -5.4242724087111895, 2.0021215137191404, 2.75620415897251, -0.49072005663154733, -1.1806063777938975, 0.039224892378977555, 2.616658557621128, 2.5696234482025253, 1.2532603920475216, 0.62108551158492, -0.11932872094282831, 0.6147387347230424, 1.880234428076445, 0.11181549274182824, 4.7006460580463445, -1.8656173285342077, 1.3301709934093136, 7.365630336340909, 1.4245453654024611, -5.494343146474467, 3.681820215907036, -0.046745714667264134, 2.3729611820285452, -5.97574095001981, -0.8066291711842117, -3.1498197214022614, -1.8085353429518494, 1.2098086174930132, 1.0523085844756654, -2.3536817029775854, 1.910849412643477, 0.30068932805757387, -4.245274167991151, 1.6182909788414572, -1.561412899049477, 0.5546945060162127, -6.972591580846656, -1.1409148388071535, -0.9265812815260038, -5.195654404955406, 0.7077857325753035, 3.2967444874679046, 1.0097334561213247, 1.4337803200851624, 0.45291382176954226, 0.6177758522144278, -0.9364278518197594, 3.4787610973251835, 5.409111202809486, 1.0816029858783447, 0.7994453391264311, 2.9199186357209883, -2.683081588524948, -1.823665920586716, 1.3119541993541823, 1.5816061979468286, -2.2041913783524123}, {1.4430174627193295, 1.5521874074511939, 1.7539037734329728, -0.902122885927709, 1.5772709351077616, 0.5818070749941638, -1.3228530252838615, 1.0981009898303729, 0.8575667307547516, 2.8769140354171863, -0.7334290936513321, 0.8425589037283383, -0.21250410114215856, 1.857324321121707, -0.5062751412869784, -10.272565148215413, -1.1891320057256192, -0.10548355383958506, -2.8229311283733387, 1.2495095085608752, -0.662881533569802, 0.32698388414113705, -2.0525819327508334, -2.030243083586857, -3.425016717644806, -2.5578289477166543, -1.041560245671251, -0.38329059278967476, -0.5991427374462439, -1.2367968027711822, -4.338568488522497, -2.593366397313923, 1.0085936055118743, -3.6042796873544654, 0.5859059730558172, -0.9901113185049139, -0.943450321121724, 0.0933051555902445, -0.85235741769778, -0.9050677659915494, -0.04600177470244683, 1.5014691326144183, 2.661619209858747, -0.8669907942597403, -1.3345750138788335, -3.080938244705794, -0.5511513783229038, -1.3954192957637472, -0.7900016029342164, -1.1481052379471628, 0.9218946318952329, -1.4665864830758741, 1.6361725992189606, -1.4066794254485602, -1.110716425570307, -0.6322108077072112, 1.6961872238822915, 0.7216939651123969}, {-0.8391711417603698, -2.0473471350624557, 1.1019882559776413, -1.7202871980688783, 3.4561968834596026, 1.532872656014456, -1.7046700419027507, -1.7670386942452083, -1.7648971238883877, -0.5469629494944019, -1.3007367286101073, -0.2394411631273369, 0.6114232725280706, -0.2809713505206562, 0.15249375796360087, -2.425670024528482, -1.2773432373525193, 0.6007708987402773, 0.4058364669099478, -0.3400200042571436, -1.851387101761927, 0.9527131684272501, -1.9897190501395634, 0.6414956587660686, 1.425746354630651, 0.060834223014701864, -2.0235194759626096, -0.5489677495310274, 1.0265476611601603, -0.1221645484235575, 1.0036129574013515, 1.0062936150526582, -1.1655514460134342, -1.9774009317907832, 1.944204537307997, -1.4094830115014003, 1.5260102632015335, -1.4803907930492177, 0.6420863494605615, -0.6849013896713804, 1.728294011831253, -1.1409515684813152, 1.559959437215785, -1.8932331804584512, 0.14475764643843797, 0.6665796126579108, -0.7980430789873126, 0.5733076126744887, 0.39549509629043933, -0.6721972496047203, 0.7599689053253191, -0.17985687434392159, -1.9882708790052672, 0.7885941445457614, -2.2806650097580334, -1.937905823820199, -1.5617250305473531, -0.7757375251627328}, {2.2047655965374147, -2.4776222735219116, 1.7142206896211785, 2.7067573297909, 1.8320184675982134, -3.6663992876276783, 0.2089331603978345, 1.5337033234281459, 1.2640619235777963, 3.0000585039225456, -0.7798615156027667, -0.17080138353078156, 2.929320562798383, -0.9748226391715169, -3.7416686294326746, -1.7101474445099782, -0.341961933324803, -2.0492711390448197, 4.6737205186264, 0.03899327728864765, -4.9219288470367095, 4.328147202665953, 0.052581918983146174, 1.7851742342488786, -2.010164516898526, -1.7798684814193884, -4.389555621604412, 1.5511526901837835, 1.528875092674908, -1.2214783081792362, -1.0413627898573623, -0.8900206471482843, 1.3639747076776132, -3.1948369491533617, 1.1224588964127655, -3.100630647004473, 3.278232865769621, -3.4842111859614526, -1.865710053055828, -1.5249886635957555, -3.2621268211379144, 0.11383628696781088, 3.455199630589902, 0.34313815131913156, 1.724970207538584, 0.9163758654927248, 0.990049875947509, -4.141127131486792, 2.1451315500263792, 2.2845186538721336, 1.543655548638437, 0.9937403394574156, 2.1320104195564524, 3.5395658957077747, -2.723618704780995, 0.5458771997134322, -0.46889410163816586, 1.5357144278098596}, {0.1943315177159911, -0.253980415403067, -0.6061363435403889, 0.17734583800333778, -0.9336686471115513, 0.2494625338308167, 1.0143999709276552, 1.3147080624726974, -1.4852947265617116, -1.1359554577692816, -1.3370045778297, -0.511873117296581, -2.5896478107870617, -1.1060190817935969, 2.7528173603548667, -0.18046494070082011, -0.40176714047548395, -0.915383234478679, 0.24770212880786593, -0.03381008495612159, 0.8608025667759069, 0.863086866251519, -1.4332543660909471, 0.1440960676707214, 0.9719279417641514, -0.3563836354433589, 1.5686919879291887, 1.1525513185656475, 0.3756657824735401, 2.376650403070686, -1.1695410768775418, -0.6151646491607635, -0.06483968767611017, -0.3963564110758705, 1.1566265536341982, -0.17478378466480587, 0.4991990010806801, 0.5674473420680995, 0.758516043014245, 0.4188515104698974, -0.13364891832595777, -1.3911278561286327, -1.2974278430026407, 1.0621211294537174, -2.1296804914915732, 0.35653728432795495, 1.462668887960377, 0.44396821733812275, 0.7575858072203833, -1.4043898428790518, -2.355005946715206, -0.8931857912088875, 0.13762114087153748, -0.6972469409286972, 0.21743482717986432, 0.19783326830075545, 1.1498809644393921, 2.0602183776889023}, {0.9924786059014695, 0.8687990425074482, 1.576665818150429, 1.0591143020321205, -0.0021076051532437517, 0.9082826100931365, 0.7982553822333275, 0.5497293666918731, -1.2929661330569275, -0.07589217376047352, 0.4241860600510969, -0.46502694088968505, -0.38128215173253366, -0.6310122665219468, -0.20713343215248087, 0.13112907185160527, 1.0884719923086026, 1.2175736017890093, 0.6035864007077416, 0.44578423869096523, -1.172161571485426, 0.4307693499949525, 0.03136428921529704, 0.13674286619499976, -1.9085816232334443, 0.8841173071353309, -0.38876818312026956, -2.4242491719071753, -2.1638266819655634, -1.3661564565873792, 1.8324754801703909, -0.8880422772633821, -0.8243026435268865, 0.06102171114182492, -1.1137214643037467, -0.28325757539929675, 0.9840254784670082, 0.9736236794500374, 0.6090963502775962, -0.8508927067233019, 0.6886385728298258, 1.899013018420387, 0.5247332143604392, -0.6101553686096237, 0.8164547696970229, -0.021686689131485214, 0.8703740001600991, 1.5135852395486733, -0.20679048968299488, 0.1005400894782892, -0.9313221554596985, 0.6064976741111461, -0.24178661930209885, -1.585927210345966, -0.19558856302723615, 0.033570486300392194, -0.24940846364438204, 1.1553445114579006}, {1.5228259793813126, -0.19052602882477163, 0.5561310910919081, -0.7314200933486251, -0.27886966172900796, -1.8632544335945624, 0.3762380228156874, 0.10169151297160786, 0.4428565461303692, -0.11566392041124614, -0.2372756147162831, 1.8071538789095352, -0.2336259711929071, -0.6236385126457509, 0.9893589450407817, 0.1333349718116541, 1.0389014158996794, 1.5974129209809589, -1.0239476340581641, 0.8870668992390834, -0.8198043886705366, 0.7883171825759765, 0.8178208245529843, 1.1455644870632045, -0.4001443601494335, 1.9945306223842376, 0.22248776587942945, -0.2925888485527074, 2.202571655620208, -0.18769843166556274, 1.4782686161331435, -1.75393910641094, -0.9249954747661977, -0.12311767730303974, -0.08264764137347877, 0.2068759226484061, 0.3713214357940231, -0.9029355851786431, -0.5861768465123618, 0.6227857481858035, -1.2339446737449642, -0.8789054765560892, -1.355861906187669, -0.5378478478096397, -0.20962991704732234, 0.2572752609344159, -0.7131090385544461, 0.12447822602100218, -1.584388099801775, -1.321233442462085, 0.02117407113690598, -1.5384491720380717, 0.2192557028836209, -0.2543181633016544, -0.48522147987967873, -1.095305951874701, 0.5996083733851622, 0.3808959645472621}, {2.0391882009993885, 1.1778438822986765, -0.07886463643805895, -1.4016886602189476, 0.4026671822515449, -1.1359446627802574, -0.5038841373430747, -0.32745457829781555, -0.5317994544797265, 1.1785175198274809, 1.0152249362968762, -1.046397744333563, -0.15767837977996535, 1.800708368640038, -0.6194138009392491, -0.5351970012413474, -0.0180030008166045, -0.5359023114606137, 0.38434701924160564, 0.2672310555115087, -1.5053115396995842, -0.027934672428810554, -0.9238649457122126, -0.2229657400401529, -1.8865713539345075, -0.7019322375271304, 0.1975119978553839, -1.1347970941413958, -0.9776812208056223, -0.13121752033953746, 0.14693517432078443, -1.8231386695138956, -0.2033795199419533, -0.22775106694622307, -0.21520445883182066, -1.7609413942013392, 1.9295194193454255, 0.10905973644790808, -0.3680378540510498, 0.01627536190819279, 0.855546786968962, 0.9286171707242044, -0.6765325302191392, 0.1865418776645644, -0.9738184213255915, -0.17692490898578292, 1.6170014030690634, 0.43095862207228736, 0.25633833484102914, -0.900407315954523, -0.12331819965932143, 0.7272142560912904, -0.3109794196347399, -0.03862449999090611, 1.8172172885367757, -0.6914823733844768, 0.9534971561006864, -0.13756512914569222}, {-0.8995155311896851, -1.8907759807342288, 0.10643874631849719, 1.9028926670048212, 1.4052232408613903, -0.19598799727368127, 0.2416295954310766, -0.24419680270502805, 1.0593092218809124, -0.2630154154053366, -2.595820055700473, -1.5189931915207477, -1.5279587140069473, 0.5378724038940939, -0.8875834849768002, 0.38338605410938004, 0.5063974608914033, -1.0605819421095404, 0.3548560637673586, 0.5756220427211306, -0.37625266567031274, -1.4045518540872763, 0.026035273151925654, -0.20667778000715412, 0.028809490020223025, -0.7957661058797827, -0.7645301663286259, -1.2670712983472199, 1.3233146529468034, 0.8870545112320879, 0.6803866443196447, 0.45465427081557697, 1.0587030250885148, -0.8774582311064962, -1.008717548736808, -0.24607502224360894, -0.25212797106247986, 0.07237408417641249, 3.577465209111071, -0.08477161567066406, 1.375403765494632, 1.3080614211753703, 2.611759090543188, 0.631394722230209, -1.9946709778344054, 0.64575808187425, 0.18473419686754833, 0.31606919743078926, 0.07780111379934994, -0.5869278462120111, -1.286112171286212, 1.0714470665816729, -0.16529985698051894, 0.8707961987285256, 0.5230190533796469, -2.11050626827824, 0.898661868698104, 1.1229210376521006}, {-0.7282087845296807, 0.719583162696336, -0.11277993984898595, 0.5696688985323386, 1.0065059935567822, -0.2314513926715493, -0.37944209856678474, -1.5642004239268221, 1.2258934140641342, 2.1205329714069365, -0.7093848647069174, 0.6652905221806814, -0.6441419472733121, 0.16906754588828518, -0.1602065445733158, -1.5462271831624275, -1.31499914067083, -1.8801451180104156, -0.8909814273261356, 0.1610526741970926, -0.587924660136656, -0.3445300353768011, -0.7700767324561316, -1.329409366094873, 1.204468815156281, -0.82355182010208, -0.31937421567306556, 1.7290822707195699, 0.9306459593220069, 2.0235462510402615, 1.4059534984098905, 1.03771923181389, -0.2695219903421451, -0.43744521405095577, -0.2668305635794899, 1.377129110252639, 1.075417996000289, -0.1930332377137338, -0.1025673943749238, 1.0753605099905106, 1.9119201366509444, -0.5554238464068633, 0.4658317756452625, -0.5020605611606408, 1.9495874090847745, 0.4440728597553906, 0.8581692835268242, -0.16886787115984667, -0.1441405998637623, 1.259188390524254, -0.052488334110876264, 0.5478861855705432, -0.33577183184343334, -0.10206591849519919, 1.181309077727253, 0.2511934287273812, -0.4879548791272618, -1.3534972873919096}, {0.8282485747721126, -1.8533185424951442, 0.7132709061790136, 0.5068034147200257, 1.9031820206035535, 0.5832153412684995, 0.7709626646709006, 1.0630465122592418, -0.11344347484675228, 0.7372616000037557, -1.6051341900351277, 0.20819114546590745, 0.9943990364016906, 1.1305385387495013, 1.4153980118929625, -3.499783521073039, 1.4556170951245413, 0.4487002330763415, -0.12833915930147677, 0.6777554431034343, -0.6959662542957389, 0.47269605020831146, 0.2842325487189307, 0.13876926507379492, -0.7786173085083264, 0.7120487009740478, -2.769949724684349, -0.5415231573767126, -0.14273598775128724, -0.7265140906028977, 1.4499134932916786, -0.6362210535316536, -1.606300322464987, -1.6795446432299692, 0.6691131027258991, 0.34512935236047415, 0.4082620073849271, 0.9845500030273967, 0.09092374140678366, 1.9047988868319323, -0.8939328780305852, -0.09438004826924572, 0.23106879678810435, 0.14712342349238544, 1.7360669984811645, -2.019724960578253, 0.9351434941315281, -0.24852817133332328, 0.810968938024725, 0.21630478462808045, -1.0255201430483722, -0.5716618444046063, 0.7354401156278717, -0.5137836661943705, -1.9502047932993212, -0.4347028893774054, -0.9765745162380722, 1.0770206900670185}, {-0.09988528560040971, -0.5961479191937793, 0.8526900673994634, -0.9316067255325557, 0.05961744100184707, 0.1393451213239707, -0.6393851318767484, -0.45079588192424563, 1.3902067691705224, 0.31185860142602245, -0.1037781259377947, -0.4404087180492288, 1.8643719301253778, 1.4946795532286548, -0.682213962162603, -1.6380350928614633, 0.1801429412778219, -0.36565101399709105, 0.7211885424640543, 1.4463857161168183, -1.8792322834308577, -1.569194827241974, 0.07609648500225978, -0.8033695651521261, -0.5804315219033328, 0.05219181107590479, -0.36265352547208524, -1.5498228481600118, -0.20267092073081408, -0.6109402401748989, -0.2526769338453771, -0.5457112813838153, -1.760318703556312, -0.5211554103232905, -0.6977876572184458, 0.4078702623134446, -0.4461026597145516, -0.19005002010278682, -0.8672217874429295, -2.129900156647662, -0.41910732813254403, -1.3858846558026094, -0.24547729801102264, 0.624494191612963, -0.8269531843694408, 1.301234183879683, -1.318426899047422, 0.7470992980613359, -1.202498338459591, -0.037759760563328595, -0.1711327743684123, 0.20107242786154636, 0.8849600147646118, -0.6364298430463025, -0.7481670163670511, -0.0015466554902495676, -0.10469877824603457, 0.28934866307195656}, {7.571676284293882, 0.34021546047421397, 2.0138897072894792, 0.5412535608255815, -1.1353595670466377, 1.8961672120114657, -1.805426506437635, 4.844874711101874, -4.4593793274080165, 6.541790948720438, -0.7437962254946345, -3.6308831295667647, -0.015780657319799895, 0.17591982423209077, 0.44631765049765243, -23.864030329029568, -1.379688245912767, -6.793571068736628, -2.9611268681916143, 2.6044005673636774, 1.0656114278273567, -0.30989818464151236, -2.851601417042474, -1.803832274241284, -6.294828100625473, 1.7237854723590074, -5.604001826725755, -0.7614297041077299, 6.127676361315517, -1.7024863854712688, -9.484571778126751, -0.9761057429319391, 1.0625021860931076, -7.574116085294029, 0.14703819380147062, 0.43566909865578846, -0.6322757715159978, -0.8225026881408849, -0.6928224527095709, -0.8298050666164198, 1.1059663454742368, 1.1845746904021728, 5.191055093435483, -3.131391962043927, -1.110574277981613, -0.9148325186031195, 0.8987635518402999, -3.606731677437684, -1.5714426097085619, 0.25884235279084605, 0.2670552374274506, -0.06346279121754415, 2.5847127719602114, 0.20881391232443136, -4.290823498621445, -0.9462257393937172, 2.398741166465715, -4.637796458035736}, {-0.44654210444619197, -1.983101006795456, -0.2144937278713703, -1.1901607497155247, 0.04569753178534721, -0.2242461342724708, -1.5533354179187158, -2.1223197046294437, -2.1731119678620994, -2.0470067648803343, 0.7995505219860403, 1.051215339312898, 1.5836718575719488, -0.4610620675151279, 0.6773219212624179, 1.5711850391512512, 0.6445400902201518, 1.9052459936225148, 0.6270360278221349, 0.09703457296853825, -0.2271270061624063, 0.6458015721441597, 0.6764849272329119, -0.02321368592701285, 1.1591803074823392, -0.0040600667244943345, 0.5816805432720563, -0.09750893700607673, 2.945364059071117, -0.9375874258100046, 0.512644925005412, 0.9065710224166332, 1.5974650818601845, 1.1933490991136444, 1.1309826330641501, 0.46829288461512925, 1.4397420352713466, -1.6801187529406338, 1.8611563919378524, -0.3273904039309294, 0.7440465778109201, -0.9923032605431951, -1.3990078810429718, 0.5892567502118436, -0.21240409952023664, 0.4834444599538151, -1.889183959910396, -1.3465311571492824, 0.30447293362583294, -0.2324744512841513, 1.0428488824453725, 0.916257630199908, -1.5011647038730986, -0.19889477210994413, -0.02855804512358145, 0.8959453379048565, -1.3021141017465332, 2.1724308695805554}, {-0.8699734117858676, -0.37046744686204575, 0.5788819974149915, -0.15636577635100765, -2.120433748264792, 0.9615133875232956, -1.763193018908111, -0.95083449890549, 1.7283056772799388, 0.06417762644484211, -1.9386273499535545, -1.1002441226473412, 0.37344601190612475, -0.0823313183779331, -0.1655250020701917, -0.018972287040851975, 0.05488756733849818, -0.412071864115389, 0.6126905551032769, -0.38059886198079684, -1.0062910104521685, 0.9187108948389604, -2.1365353169959214, 0.6470661938958062, 0.5650025926525644, 0.7331365448636005, 0.8003887437901551, 0.17120908581387795, 1.6126577314325001, -1.2929422692219512, -1.506884818156092, 1.1796874429876956, -1.1971209354150716, -0.2905251911741114, 1.869279142811814, 0.7671946905144529, -1.71556588498583, -1.6097333364253026, 0.6101739700331066, 0.39903389467796535, -0.031751156651275876, 1.953631952139532, -0.8846852472585979, -0.9239278386864462, -0.3385760426213231, -0.11884647173921824, 1.540458439205664, 0.12957937462759608, -0.5500555311456291, 0.7033899158233374, -0.24731067327580017, -0.17701225797946504, 0.914436966583498, 1.1931027745846732, -0.8235742181868446, 1.0248676949371138, -0.4065189549192502, 0.18571355086615937}, {-0.15994092087168257, -1.837854878364147, 0.20242490040825212, -0.12196354812478707, 0.020182801533671125, 0.416197157489228, 0.18893019010514558, 0.44162484345211694, 0.5207498946424529, -1.083489742376919, -1.8872646678825227, 0.9360778131072196, -0.24778820247824518, 1.558491737502322, -0.5779071387888689, -2.939602776233339, -0.36087206622943174, 1.8513445351223041, -0.257660270193358, -0.47575025553099337, 0.24022691156291204, 0.5784108685539456, -1.5973204309867763, -0.3298306395962142, -1.3028658085337166, 1.5738920881663934, 0.7752930653417188, -1.1218408584927373, 0.47890582175881286, -1.2341095370218076, -0.28496958965580776, 1.4104492901674186, 0.7459780729013438, -1.3371796222098826, -0.8678272557816004, -0.8600638952296915, 0.9765305729238897, 0.688161880389662, 0.3227310081784039, -1.795324859632022, -0.6591059413600722, 0.08311063558159149, 1.6744708036104143, -1.0933507760151862, -0.9608780044228584, -1.2845511088100545, -0.522420336510817, -0.0013796371593759725, 0.3532254306241228, -0.03269312728953051, -0.93991919902676, -0.15789641173641727, -0.7050911818719346, -1.0123750304528145, -0.6370195412916445, 0.8283508566468138, -0.27029070203505556, -0.8908457433867207}, {-0.4231308086561103, 1.8138916207468705, -0.6447924878698007, -0.7575674173461742, -1.4034347392913378, 0.4818231744256753, 1.5910161680308001, 1.1515919558756098, 0.4159867072255246, 1.1723048489074628, 0.8025396953539683, 0.9439966862571664, 0.3424701806657569, -0.23925645862784997, 0.692536681491285, -0.3887839078468061, 0.46728081716452924, -0.02233216019183169, 0.9132247211292324, 0.3560339161585832, 1.8144363594158088, -0.6946232311654157, 0.966338025319981, -0.030830638704670444, 1.296184723056104, -0.28119876845470776, 0.7863571844875207, 0.37350532262102354, -0.7866446290930632, -0.5108996491972216, 0.24436006727908668, -1.5839971055119686, 0.9172520778916076, 1.8688836349160816, 0.5803463625500915, -0.6965934938391508, 1.5831666051391986, -1.1223021463995582, 0.28207458011703873, -0.6255582429497464, 0.753022892845842, -2.1682063411033363, -0.02900252903459941, 1.3262459039509695, 0.28178703038775205, -0.07376838332059689, 1.3606326564943336, -0.28017399024615086, -3.39886473234896, -0.08588529546576196, 1.0556975049769555, 0.1412867460647085, 0.21503422339626393, 0.38956051582862716, 2.0981813438931116, -1.6445832739019073, -0.14626573232034407, -0.3952333982405}, {4.849102308258822, -3.433700582380289, 5.135698882941205, 1.7656503269491572, 3.141820992995444, 3.2644536850934194, 1.3649460544979863, 2.1994894308162687, -1.0596527644307092, 5.1257713621431495, -0.9427535713484961, -0.5623993575664529, -0.11651178969608143, -0.43402271532672615, -0.3490450158963499, -14.763885931223541, -5.569035593865676, -5.679355459765181, 1.2264397296494884, 2.49621896725122, 2.7733953214978966, 2.2275189721022235, -5.149995078507893, -1.9813154307978513, -8.019246521012668, -0.7543313204525888, -7.874213643645294, 1.0329778679583506, 1.447724679465248, -0.46801577852487436, -9.785606889115543, -1.8503838001964104, 0.8424418848917252, -6.6937025902529905, 0.5412831334342039, 0.31110011346589433, 1.2453343682130749, 0.6319712733193595, -1.7455658888020618, 0.9771756385308437, -1.6033437317932506, 2.9435848426235833, 4.450447570292634, -1.2399634054649133, 3.4076520532842127, -5.304388632636607, -2.343517516273331, -0.17213267093939683, 4.3284354076043305, 2.788259681764602, -1.949698976078089, 1.8175585395484242, 4.194968317481381, -3.103410602291372, -6.4780493067946825, 1.8946393430488555, 2.3822887175908742, -0.8009527701320003}, {2.303799289026093, 1.4912778486897382, -2.2075017965452233, 1.8657837874694019, -0.12951665645809662, -1.7114637954911875, 1.2603904116960216, -1.2501778119759224, 2.3248071514456345, 0.5705817125410062, 1.460151170318168, 1.5174484022467614, -0.6221447415938546, -0.5128455346804599, -0.3606170684327233, -8.942463093840406, 0.018101523780688196, 1.0356049454073384, -3.3784882935259772, 3.0135761212525862, -0.9020886814471786, 0.13339270627747665, -0.6194719118100727, 2.864834634164623, 0.5278451120470132, 0.9524174706991382, -0.18498382003160907, 0.2788621458573612, 2.327491321393831, -2.2332701550839764, 0.5521858672487733, -2.4196232361868173, 1.0105178224527631, 0.010247843749548442, 0.47032247914805453, -1.9879341195389097, 1.9166100491274085, -0.32495083399038377, 1.275368808838549, -0.4615468489552437, 0.3067003846407607, -1.8963183296216704, 0.24730275435378613, -1.2969337152323412, -1.3626827643450472, 0.4502591417665245, 3.483800452036504, 0.40826327620947905, 1.1376361289261383, -0.2808135355087433, -0.7422576267021378, 0.21905875635721098, -2.5131921855123496, 2.7717525762980246, 1.4243143170983243, -0.7568598359581367, 1.1771763101363926, 0.5178081543450824}, {-0.16162089844378646, -0.32963692868257244, -0.1364408903468446, 0.5476973417988004, -2.427505412972896, -2.496873539204839, 1.7284252062673497, 0.1989602766344593, -1.189109298069351, -1.6270986015573417, 0.02535403689991349, -0.35178763829925025, -2.2859673607500257, -0.5361080419118208, -0.2685310242874677, -0.24481408103733412, 1.2357447228491523, -0.8612015291114651, 1.4097977065207676, -1.221189157824041, -0.8695260079798901, -1.086414233755911, 2.7121786250610294, 0.09573189959289695, 0.7879822440132753, 1.6223525967421808, -0.6057946210559527, 1.5205247210587638, 0.3720566679210902, 0.7736151208320209, 1.3511337716957428, -0.13821897099536856, -0.13978166498770578, 1.4731230074646016, -0.17556924661203696, -1.145926496902017, 0.5912238666356168, 1.466637197351608, -0.9224644306986561, -0.1464360914545215, -0.3377180993379311, -0.1912306426809384, 0.7270428270927873, 1.7611292812260742, -0.07017635022770682, -0.3410124474542792, -0.788817897235409, -0.33179626763523173, -0.655892660239786, 1.1762681534320611, -0.5657299664044196, 2.022327367762857, -0.21401502081601867, 1.013694425085354, 1.3256879122361906, 0.8798756042670757, -0.8836910662726136, 1.0125434569598697}, {1.507246566511144, -1.2829576067875659, 2.1390554981075396, 0.5050819542108121, -1.7891740208442697, -0.1198125405416551, -1.3487913436711598, 0.17314145146649174, -1.9390902806808352, 1.7766811758806893, -0.19628307886522509, 1.1207400559591718, 1.3654753797521084, 0.08774620454755658, 0.1816302806566984, -5.51047340929827, 1.5476593511121435, -1.5604875080145484, -0.12504915113055634, -1.0609179276995486, 0.3964937715737994, 0.5941575665148202, -0.5738852635915218, -0.9401005830912219, -1.7596197545891825, -0.13323399388921175, -1.6927330586631122, 1.0448549567446832, 0.38614105282137895, 0.44750101881159166, -1.2106102790477138, -0.04134914545322578, -0.23183141320767645, -1.6370527109598345, 2.5242173880258854, -0.9552501780299966, 0.8728812593434659, 0.5559198864596772, -1.4938267753418162, -0.0403288669292261, 0.1473217608955441, 1.5877716388044638, -0.8532882408077741, -0.47471725749478466, 0.09735723515409356, -0.19705862211187813, -0.23397261651602713, -0.5795161757682875, -0.6817765144752053, -1.0871158424150436, 0.9359238182817171, -0.3843265441612736, -0.31255378347931684, 2.4922436245659583, -2.1482365813370627, 1.5885707879107065, 1.1529363022300931, 1.1235728715644835}, {0.747901371496558, 0.042564176594622596, -1.229924327703922, 0.7002121929927491, 2.142184115199793, 0.0866841482940324, 1.2420809941852786, 0.9666280123526073, 3.0146425913231334, 1.5953460738492296, 1.245587098027587, -0.13098117790946284, 0.41044830988378944, 1.599034607296244, -5.343452319429634, -0.8338515872370431, 0.5932529094948535, 0.8080927075365422, -1.8752809535011967, -0.4013805945450261, 0.6118920141005816, 1.7581037800111268, -1.5751112745392069, 1.610040410495247, 0.9042427016052162, 0.13846747827418635, 2.982783189377915, -0.722466280854258, 2.5172997079867345, -0.7590106059103388, 1.377849085631661, -0.6408322632795995, 0.6260717593213957, -1.4730757037837414, 0.7805449328864276, -1.1490458400749743, 2.963166312559894, -0.7037935069377548, 1.446358991195836, -1.782086899223641, 2.391755396661107, -0.6899077930188714, 0.43766016399905416, -1.1400676503345955, 1.3057464065393107, 1.0711270389328833, 0.1635162626877266, -0.43649411885121053, -1.0970679277967144, 1.745772043085663, 0.03381992951905756, 1.1308004526217572, 0.5301375857417967, 0.6278847213654782, 1.2513444041625172, -0.33087866945331273, -0.26041402934699265, 1.717794505258897}, {-0.10274110008436103, 1.1259327469287133, -0.7591894613826947, -0.9624993901303449, 1.0599169205920147, 1.9562414360954539, -0.003425542860562303, 0.5749330029152384, 0.3821234249032693, 1.3625528012717665, 1.194594254831885, -0.15469038504517946, 0.7288215135252198, 0.6504915807898035, -0.27755870867611376, -0.2358625893775428, 1.19593844261311, 0.8200156134684635, 0.529171338376871, -1.4206500805752893, -0.17856548142592218, 1.4990279325091838, -1.588689085217611, 0.8197337425235793, 0.12802355943023283, -0.894155493158567, 0.961597503689351, -0.22959683729176855, 0.1912840026117492, -1.98163971052786, -1.1308787872031554, -1.4354479353387524, -0.999094430129415, -0.4594288159538949, 0.8232728442745602, -1.0907001994026135, 0.4654547596926321, -0.256455454719329, -0.7173488430468229, -0.7629395951740718, 1.42940859499324, 2.215240009247566, -0.30411820699594294, 0.3943235472414196, -1.0778151839928254, -0.3124093935617792, 2.6165504785603053, -1.1513274145443553, -0.13810082521677508, 3.3385194562911704, 0.26529593836911713, -0.6889973702361954, -0.9638324645211409, 1.0133851885200071, 1.1647379262844144, -0.10960361082020252, -0.5108837252641795, 1.342563230646482}, {0.897187609194625, -0.324166884434306, -0.44766075889936324, -0.80259252914719, -0.1818476431361461, 1.332084566559878, -1.3121152086859769, -0.033868266925113764, -0.09803669664607374, 1.4599309054698593, -1.391113629093501, 0.015930313629443225, -1.3160050591921773, 2.982824576126303, 0.3587816962234056, -4.966769401685699, -0.41896102521895484, 0.5869748224994786, -0.2500608755194425, 1.6621961549538402, -1.9493425941613522, -0.8523149720203264, 0.08757553319193356, -0.24318654536178685, -1.910807851409843, 1.6305834511300301, -2.66903688073907, -1.8411897253573413, -1.096641813018088, 1.4640066109352916, 0.6114388515070186, 0.16805863379918215, -1.978086960415068, -1.4179637213738738, -0.2047852603535013, 0.3110981563112567, -1.8183778528846835, -0.3782654233172087, 0.4184679533036305, -0.2542605188116721, -0.24751955495055095, 1.0669064021172932, 1.4543345487993906, 1.3296930668363618, -0.7770096106177847, 0.5709684403132599, 0.0000441150871367, 1.1464028657993006, -0.13979658898231911, -0.24739528545535558, 0.613568706375691, 0.8800260451805126, 0.38229413166532056, -0.44769612627344496, -0.7527372017112754, -0.41572879655687195, 0.8819100430221533, 0.05464016437890698}, {0.7249943984225654, 6.748669878605338, -2.2119365304119114, -3.882334134009595, -3.8172229172310943, 2.7713350990692875, 2.4692788242831583, -1.3041995492220775, 1.2894694806915188, -8.961713711677756, 0.4083445272091802, 4.512043082726141, 0.21885105706917388, -0.48138841643138847, 1.530968234289494, -2.386822542612409, 4.256577072942782, -1.9981294116963007, -18.46807125476162, -3.291077328323101, 16.95107609524929, -2.4358867608624895, -1.1146080909334914, -1.0189756696209005, 4.259521205467282, -0.6241732533998658, 8.453181681500313, -5.23886705796558, -0.09067925055251502, -0.2493013648320949, 4.448049135816825, -1.4902476650466856, -1.937470758296229, 5.34927729851505, 0.4845228555437547, 3.6471141661508404, -0.7010963947253028, 8.364487172603257, -2.8457429104674192, 2.853744186396108, 8.06474229731411, -1.7374864560664744, -4.211004741540811, 2.752799704698304, -3.0300364285808556, -0.1223142752340028, 2.8493764131499226, 3.52822156881791, -5.470657696428215, -5.092790091982189, 0.8392526106259356, -1.898647430715764, -2.180796894952823, 4.661727286227973, 5.222052968649157, -2.319832554197661, -0.5135978083325565, 1.5545018723460757}, {-1.0584538256533655, -2.15243883710215, -0.292654399221044, 0.33262894788287095, -1.9003543277355368, 0.48353714667635445, 1.0486765497818387, 0.1554227537519934, 0.4676909349812269, -0.8459160427934743, 0.5687023168409224, 0.24457324780634845, 0.24906124129441795, 0.8915802985459833, 1.1328399984734026, -0.46954902546156996, 0.6325597590606553, 1.227784082560225, 1.2554411902331233, 0.3580182672513371, -1.8365349658255994, 2.2678383952992487, -0.16682193187210365, -0.09759846920970548, 0.8561494355339199, -0.29991079095021844, -0.3684314232941463, -1.8908705143149465, 1.6699760925120115, 0.2892996953880913, -1.0080234566307569, 1.1260391864419397, -0.14136418484725505, 1.2778085511494508, 0.8128567141648438, 0.2202390982071549, 0.55694374650385, 0.3891644010194159, -1.3397685866234577, -0.2528048577072956, 0.2877064829973817, -1.2271976100510789, 0.19129485663365756, -1.0864201116813508, -1.9259506669692592, 0.8220141902300195, 1.8455806079555999, 0.8884392705304355, -0.038305601035617906, -0.5404708564667167, 0.4983205958208185, -0.8078251050458194, -1.622083513789546, 0.33302851448912096, 0.722155352600087, 0.294729778368171, -0.06308296963022773, -0.16559155872027895}, {1.1767440866276235, -1.0557702984599973, 1.5806808014215006, 0.5775804557473505, 0.8688358703873414, 0.9374774079997237, -0.8040707902611226, -1.3216447230366726, -1.8204064695925222, 1.1291230382705815, 1.9414854845157183, 1.2548951884848945, -1.2378205263873665, -0.027423610073290722, -0.586703347296748, -2.6036980412683577, 0.1939557210909429, 0.7682660566700552, 0.6593074093221579, -0.6869012872613128, 0.6163175394846734, 0.41109272901125676, 0.05179509396658291, -1.5935134943305926, -0.5839505208465646, -0.03329335750925111, -1.993938449345415, -1.3453763244815564, 1.964737279868354, 0.200350682164692, -3.1056314366563478, -1.3447904658792111, 0.767685065217329, -0.7844379485199169, -0.13903258036820298, 0.4847858869136239, 1.3986193699336666, -1.4409825960362417, -2.529329854050366, -0.34354074202338214, -0.8963099617606722, 1.3621939826200216, 0.5571467403394785, 0.3456103615340998, 1.3430801718398873, -1.0018940428487906, 0.7710945451544609, -0.8645447527526523, 0.23505375225722167, -0.5497019560627708, -0.9728278346531125, 0.027530682043403594, 1.9569811006122917, -1.0313154040504116, -1.3508457373033542, 2.9628152740255813, 1.5756331710852558, -1.4163778135018854}, {7.534854928459625, -1.4229682342099104, 2.9373760398634077, 3.414195795398804, 2.426772696197224, 2.662504082987712, -2.744627563744431, 2.08317792152002, 0.012609716740164496, 2.287946853079521, -2.2626306817359207, 0.3606964706054973, -0.9782326929449568, 0.6421120664490197, -2.321668280033285, -16.07395001034846, -0.5359762813523848, -4.805943481169733, -2.740170418909675, 1.4018412614476004, 2.2314594346914465, 0.9560101608818362, -4.463138835087895, 0.6798976903696873, -6.290211493673771, 0.6881920942161324, -5.353756369681317, -5.792063562038766, 3.5827773721061003, 0.04209410473892723, -9.417430530429344, -1.2987274097708663, 0.2016180168685938, -5.758184890671171, -0.7535844976092557, -0.44490878762349645, 2.058221712087948, 0.06831638816829594, -1.8532712728224616, -3.859860418165613, -1.6614140096671024, 0.6669879934488437, 1.4632790588212692, -2.296025825338236, 2.24033657154433, -4.906837600536134, 1.126224648698743, -2.784354305414424, 3.2708095778195667, -2.2202408520045283, 0.08637912619326679, 0.8257853008003356, 4.629942554512261, -1.4565201271717694, -7.151772912073733, 0.9884484241795688, 3.851523008392534, 0.21587040771118163}, {4.948016307996381, 2.836297046472403, -4.43687302238986, 0.4340666218486518, -1.6847029827761744, 1.8490803760824668, -0.5918537026643704, 0.3816334961814147, -3.8248083824711716, 0.0036501482185507814, -1.5052642011549981, 2.445849127537332, 3.94203206982996, -4.030458910730215, -2.483686964534057, -15.014668316935376, 4.044174128745384, -6.669432837788483, -7.976748695270034, -1.452227520239928, 13.500709395931931, -0.9883766439143652, -2.0139530155890366, 1.7367912567827826, 1.7772373819927627, 0.9867333429978236, 2.728477942510894, -3.961768093840867, -1.2976263236020686, -2.8124119616320735, -0.18235047138021546, -6.154349465599777, -0.5399437386872402, 2.889000497573657, -0.9250228739765625, 2.419353184336066, 1.7943954363444963, 3.502629810434821, -1.750800040093296, -1.7598387529464534, 4.541480652081553, -5.948812721566076, 0.09309619278690914, 0.8172714017056156, -4.439941836787158, -0.45145926510769946, 3.6268243953562824, 0.4229988638949431, -4.63704326816702, -3.4576865177327845, 2.113213430316368, -0.4267704095520639, -0.9101751337383159, 5.890997993262556, 1.944585017329785, 2.485693648029474, -0.6811385922524582, 0.2556964145057097}, {-1.5118814811105001, -1.9503392901470662, -0.9823664990950962, -0.2703387208971491, 0.2848602936295181, -0.24937703261678526, 0.6432845925743842, 1.8820437196698503, 0.5740930305740266, -1.7175239622438006, 0.68195989311012, -1.9732301282502698, 2.7015373374785385, -0.36194787992180055, -0.2972695902008821, 1.6822563750788573, -1.5329369795240855, 0.8131299545251335, 4.031780629172766, -2.0318866528973065, -1.8607981561610143, -0.8121883620348049, 1.1637978856504692, 0.8462018794380408, -0.533886806060917, -0.21807164900619316, -1.690127000877951, 0.1994741819773778, 0.2482513568330128, -0.06768973256722066, -0.21292443837816694, 1.4691781782900952, 2.3780052641431353, -0.5048646054153493, 0.3079565457354405, 0.8033004884169046, 1.3214251252044649, -2.674173282580511, -1.4266136063188957, -1.8200592631756711, -1.6114924038716216, 0.6533226020373967, 1.3339558643325442, -0.8209213585230496, -1.178994420576363, -0.22878244617088683, -1.3840341952900264, -0.8433531985845955, 0.6658856986716208, 2.059201567802931, 0.15091190467379942, 0.6690290419427923, -1.2882848613339453, -0.2311667845065779, -2.256099584067111, -0.006046971630849222, 0.40361135296695355, -0.044154641201128324}, {0.3751557214020512, 0.30092574023462815, -0.1293747501856778, -2.504796417638989, 0.6060022789685271, 0.6309178287784643, -1.0312258226966386, 1.830220573499965, -0.37353257910429527, -1.1136895673777707, 0.41663243393383975, 0.6317603094913946, 0.34009334721727275, -0.40697488779360774, -0.8961140243136778, -6.987113862607778, 1.1589011422714621, -0.336066399308762, -0.7565214762118602, 1.0056932799554237, -0.6429289869377578, 0.8421772782947695, -1.5328998402938554, -1.2728444292681007, -2.1085246887100513, -0.3390592227341728, -2.373309366412826, 0.7300203658428696, 0.553296191820648, -2.1707076171647066, -2.5508291850394893, -0.7753466019567233, 0.6980525715871049, -1.8479673761461628, 3.1737480134738227, 0.031033917084469093, -1.9493401535375525, -1.0541400203990887, 0.17685561877160616, 0.4255131387304388, -0.23875812367795063, 0.8083598170433375, 0.39623375524403703, -0.689730407160463, 0.014656694002342362, -2.243318194255702, -0.16838576299357028, 0.6521520205187946, 1.5184127291471887, -2.141658467695112, -1.6143025063413494, -0.7082793451127251, -1.3884802965780987, -0.5778472830778022, 0.12342611291247536, 1.1714331201599846, 1.8447783944774507, -1.0980201909383458}, {8.062834988622104, -4.7436587043861955, 5.552993987575999, 4.329910076153948, 1.5042848816776366, -0.5283373153430208, 0.015042603820770736, 2.437220503054828, -0.3391975573779299, 7.855913169380077, -0.8272424555085732, -1.1882614251795194, 2.7993371996267307, 0.3472837519837486, 0.4635904189450443, -18.360467975021354, -4.905933511685257, -3.9603981864042987, 2.2581638025373465, 2.359084352035693, -3.014101491323078, 3.6576122611690733, -2.130296356252911, -1.9488135683553613, -9.230404518706047, 1.8879793288855538, -8.099398301106955, -1.7021726242242556, 3.399689547776287, 1.1504171775639402, -12.328063597157492, -3.2220888036923148, 2.5839522305881015, -8.679508228279348, 0.3263715797325779, -2.997143538505251, 0.21110186985455234, -2.490513288904189, -1.5457843690138113, 0.2553554759281605, -4.083341567976643, 2.33039316646284, 7.611642403225951, -4.1063606577983975, 3.5374385459963, -7.126200877720296, -2.9089383754823572, -3.2467574323820214, 2.266014736738604, 0.3112897071304597, -0.40179225695516396, 1.4228751065615686, 6.56000765634608, -4.450829866476383, -7.465990012246334, 1.827646943970156, 2.1882406483223082, -3.2077810594039}, {3.04525062464609, 0.37005129428213535, -1.063546954029899, -3.7863985018674184, -0.7290656126644334, 3.1598426235382733, -0.0837567902259529, -0.7172783830697357, 0.6456854882881174, -1.3978166072647538, 1.3590862568117414, 2.5307198506325035, -0.007694348967478867, 0.7692834867171173, 1.6211810186190068, -10.50835554071329, -0.3598689884273735, 2.439359769470426, -0.5043743953666256, 1.7134694731204299, 0.10010971437818887, 0.5714566131393891, -4.054222581656173, -0.21554628634622547, -2.5975623810555777, 4.361606482600613, -3.777679675280117, 2.0529167031226043, 0.36351102986718065, -1.7549640328802, -2.4877422402426164, -0.7852006112794514, -0.007379373795322443, -3.02069535049704, -0.4637186126139951, -2.033802107997499, 0.83639870715775, -0.33624244421284105, 0.8041297390767517, 0.7387692085013577, -0.8255619314885368, 2.0852014582970826, 2.222678146300046, -1.4566627994655408, -0.5316694445369312, -3.8638735952729637, 1.595897783264941, -0.4187421296000356, 0.08143026250447787, -0.3036840039232204, 0.7772075077411196, -0.9414534925305639, 0.9950271221938841, -1.5939860717986623, -3.9658769953041753, -1.256309152609173, -0.8442035592354933, 0.28955384640351}, {6.663772777570018, -3.0697237720672206, 4.848065728734615, -3.501183222726777, 0.7363949467864124, 1.7503548720214825, -1.9791649463421646, 2.759400432448704, -0.5496320513797079, -1.1417618271729433, 1.3783126973814008, -0.889082991743118, -1.2878524699991518, 2.898428315189321, 2.7232185698200775, -24.984218615109818, -3.6386484192007216, -2.499954779418049, -0.23800562432211578, 4.296098084907202, -2.2870848978447578, -0.8407028434304623, -3.855318633465016, -4.798689265826376, -4.771632761169665, 1.0068751827680993, -9.355407011805973, -3.2108513539786694, 2.6886037414033455, -2.9904651361130488, -7.532032012396982, -0.28755040417521255, 2.104655497795939, -7.937660768627104, 2.775065559007875, -1.315112923235729, -1.6653615138730777, 0.3681166463849751, -0.011747386502258607, 0.28029126810977534, -2.5116901904236117, 5.297586751305507, 1.1040656734673022, -3.3623956785338027, 1.5560210962427266, -5.687143558641378, -0.2518170227138637, -0.11612640274967032, -1.6279272734790275, -2.614110008736853, -0.5023016654440321, 1.9522744608204072, 1.0802349844014376, -2.140292900377836, -5.7151631603252575, -0.2574131662979937, 2.6338954822325693, 0.570120294412498}, {-1.2885565434149868, -1.0183869353217243, 0.4620668550465801, -0.236759510194439, -0.21484242176758384, 0.6632816887416624, 0.2199478753040923, -0.7094778441089425, 1.7130362919520126, 0.605886097806827, -1.439987718690836, 0.23072431584228192, -0.3209676621819734, 0.14822656700793707, 0.012581659601944227, -0.5709051395617987, 0.8574831032470691, -0.8452163230422389, 0.011732443812945737, -0.6891723523008508, -0.7341473934431888, -0.6102536693765017, 0.4566692443080889, 0.6482160247532714, -1.4610468159767647, 0.5341347641222898, 0.003333471252404977, 0.33850922153525187, -0.2520165146646392, -0.474347563488235, 0.846998550833848, -0.06654568984024928, -1.1538426352401843, -1.2480048348650683, 0.2942067634905073, -0.14237311447296921, 1.1124534490049198, 1.4723863006088724, 1.3927206142756632, -1.2178137169127572, 0.2790770847224422, -0.5125194629850266, 0.2784515290723209, 1.1695735242794094, -0.48598011952682485, -0.6721728358870805, 0.23410444100693095, 0.0749757198587995, 0.7930866169853533, -0.20400668669867955, 0.4053619401583914, -0.2025583754141784, -0.32640243185227874, -0.015108465842613808, 1.0315106944064638, 0.6812547873017062, -1.4256504897286406, -1.5979645206357653}, {2.577348950359265, -2.2083350247298164, 2.9328438572907016, -0.31750620648711775, 1.260779838156754, 0.9492934589474883, -0.7726437346026469, 0.6868716019583858, 0.788857269233935, -0.16793524616466263, -0.4335568483765413, 0.32652539577704603, 1.7480624405522525, -0.140189129329351, -1.3328303054360318, -7.533597922983452, -1.4031792863895947, -2.1660237835776757, 0.9604284957794192, 0.812318859895616, -2.979413552964028, 1.6914976642641688, -0.3266479185614584, 1.6171291278081392, -3.734275765968042, 0.09061709750047754, -2.7119351938865695, -1.2810478448963136, 0.375255368551294, 0.2116205947502834, -1.8359813487735872, -1.1633322033524656, 0.08609087222920402, -3.6091207543626855, 0.058905686060181844, -0.4348894444596764, 1.900688321172884, 0.29859693696125283, -0.5192441041740714, -1.0454608089507833, -0.1825506303879155, 1.3747541505128806, 1.702896686555559, -0.39358225312120615, 2.424043090663953, -1.4882275083771859, -0.9544978304644857, 0.14200234607243742, 2.1186704804714953, 0.1621794423761573, -0.6380237600318686, 1.439888375665218, 1.311667422037196, 0.4233483864390286, -2.010402690515993, 0.6798964181902017, 1.2760113448617185, 0.21859024002502983}, {0.3121735099912114, -1.2190503686223102, -1.2998934974683463, -0.08850694645919356, 0.16913723758032484, -0.315318592512357, -0.5169949666966622, 0.7537776204883762, 0.6249855298574626, -0.6078616744078118, 2.2900292191918417, -1.0279305611635243, 0.689442649960746, 0.38768194146717794, -0.4230289852528004, -0.7302200410815481, 1.7843393205920177, -1.3373768215081785, -0.704111190266318, 0.4944785635904555, 0.2664373974045871, 0.8455726115248928, -0.007341121627911312, -1.1230045073165758, 0.3535216452582533, -0.7295984619559367, 0.9765697139064959, -0.08439523200753585, -0.01950104171236876, -0.9154278792466267, 1.4548481494968142, 0.6199561889856214, 0.19471134973653503, 0.09777867504862055, -1.3340974562082502, -0.4230066113393774, -0.9759027756338727, -0.7373170628139947, 0.5147252939986545, 0.06343255932967273, 0.006103418664920961, -0.9556544553762737, 1.0299224812286547, 0.25210541596253644, -0.02639653004139326, -1.1697393933284077, -1.2432574956214646, 0.9586894843686053, -2.023999854926427, -0.36872388361970937, 0.020365946519782296, 0.6096364189599975, 0.8169989662883774, -0.8262825573766104, -0.8036638050558101, -0.3455266700904935, 0.21000239695461226, 2.256469950828259}, {7.6024818943145025, 2.0612112559022258, -1.4153925770896358, -6.456418768854318, -1.7791103874503227, 6.473826707062319, -0.6726458038090696, -0.17475581569020374, -1.1573610068671953, -8.988177981154115, -2.8267147619545256, 5.988619385504779, -5.2170157302424105, 1.3382340150150243, 4.941474686847228, -27.655475597229298, 0.4870829592198148, -2.270805982084566, -19.671820502523694, 3.264740404905053, 13.59870091075144, -2.6978440565555895, -5.256992481041459, -3.674842074378415, -0.4101318648862105, -0.1138705408679798, -0.08501481041812282, -4.458038409721223, 1.8713069804789804, -4.16216225200569, -4.93504112065071, -5.421524847912885, -3.699256298334508, -2.484524295111243, 2.3291310383216186, 1.8560020219888451, -2.6193566748692834, 9.343297759538745, -0.2789415751830282, 3.4760305180738276, 6.030896353132777, 0.5165136478393625, -0.7639249700789192, 3.071494996211454, -1.5748179970224425, -5.299631337600773, 0.4814105307048617, 5.841701221626803, -6.1503375561376785, -8.90303877127244, 4.799909995938937, -3.3740901201013505, -1.7132414516941867, 1.7217880970740982, 0.1515698323764497, -1.0982144605265247, 3.243308303178628, 3.8703709161224475}
{-0.5454799594094718, -1.1675804300050396, -3.8437514264747508, -0.23267431977120992, -4.7221363147320705, 7.431584223621528, -0.487628799993403, -0.6066046685012197, -0.3208283833997982, 0.5741206448549175, -0.4573077077926088, -2.0035934406400298, 1.4275783320090971, 3.9501545485916467, -0.014012484124774459, 0.708519205382438, 1.4879133313435309, -0.6257523294541891, -1.6770462212240265, -3.4753350610015623, 0.10625602757770955, 2.4990528419737186, -1.1419835434396777, -3.4039917294171578, -0.5542933358375514, -1.5648326260754912, 0.8607694774920187, 0.5597964797851018, 0.9203784090535532, -0.9716356350205634, -0.5156598408054408, 0.11789155293984063, -0.8777934713495346, 0.30817514334927704, 4.085447140419009, 1.713479943109778, -5.180436875286577, -0.9701629323234917, 1.2268013689889279, -0.14457706760751948, -0.1934276954290589, 0.3142570041388634, 0.5623838764432716, -0.8515981834066275, 0.5803317037298885, 1.1087526076478647, -3.412051134648536, 1.318198428538307, -0.3337260132876631, -1.1560196348959029, -0.9444821582919258, -0.9168888732691277, -0.6604671623649516, -1.1340723186749497, 0.7671719269118298, 0.7750583005259437, 1.2768693504844908, -0.7205263597271155}, {-4.523488137739934, -0.8191069917898531, -9.664060835575041, -0.10671301150953265, -9.683703719815265, 11.996216871994179, 0.1882221281834235, -0.5240079338270651, -2.1095945534675584, -4.697322281368801, 0.18104025692677309, -8.070748286815626, 2.688983416428424, 6.362081442511737, -0.11060504308184706, 0.2968767121662479, 0.6135978624238996, -0.2721120642210058, 0.7266099362972736, -6.090509253627452, 0.13227845185968398, -3.505362269205501, 1.05799318703376, -5.5317262475750795, -0.041140274695737035, -17.034077580959774, -0.3266068845759473, -1.984842721612865, -3.382386516845392, -2.065581324603114, 0.4365685691851601, 1.1548747417774468, 6.613230135324952, -0.037690558217827214, 3.1073088194473053, -0.34834105019091655, -16.886943842646676, -2.6287263026739778, -0.1179675287304777, 1.3113335132638277, 0.9851194895006027, -2.7393542884869477, -2.6105216023608833, -0.9666259129206001, -0.3805579012909597, -1.4743297851777006, -3.4154326267090998, -1.3775957722771701, 0.5406669683253207, -1.506816699639832, -0.5059929115029085, -3.28498084474901, -7.725118638880864, -2.1573250855150006, -0.4043740599195645, 5.122118989693778, -0.11128510532070741, -1.0985362011913755}, {-1.128345920539584, 0.23183242319567807, -0.5321824553596338, 0.7579564895094612, 1.0485540135860292, -0.7591299187613266, 2.62991746839534, -0.04167715508536233, 0.35383374109158855, 1.4627353104788086, 0.7539131757986685, -1.0289652303434056, 0.6343677561766128, 1.209666669869033, 0.013926295190417756, 0.6707707391634411, 1.966589308169794, 0.057160196017321516, -0.10809269831030005, -0.12386566285504398, -0.2376181550370642, 0.49948352087337894, -0.13179294691253265, 1.89336782366465, -0.6223921959801099, -0.15562740828119745, 0.7523021774748024, 0.5961628785957218, 0.905650660784754, -0.15349984045145937, -0.03507895576448982, 0.3494971519342331, 0.46702379266183125, 0.3135799560779595, -1.0992506472846362, 1.0147870396447325, -0.07445495032280545, -0.8254160182845041, -1.8802955439048776, -0.2712419765875918, 1.0924824864719187, -0.032486049520365996, -0.503210969739097, -0.4519885725184309, 1.5987094696361863, -0.7024924257797409, -0.04235383422516684, 1.3823456142012454, -0.5144571329666109, -0.6403397658967629, -1.3833769213213463, -0.5780688113550101, 1.1722796934459587, -0.4830394295015143, -2.0703394847790926, -1.7664194628989622, -0.5009800653884628, -0.3209968892626032}, {-0.06727200808173818, -0.07066869170269952, -0.1895903463164107, 0.4275965638602352, -1.0889579193716727, 0.756147334310995, -1.8555955554905215, -1.172057472076455, 1.0141085154141012, 0.2303769649571161, 0.48930363003948174, 0.05354866270689291, 1.7851201346131373, 0.8738377751971403, -0.6621049220084703, -0.4298867362257573, 0.30055150385073426, -0.34272864847063317, 1.048249059380424, -3.12702691834854, 1.9270892135186053, 0.2090168910302638, 1.4468045082539318, -2.171776795728392, -1.4041925679107021, -2.527455715877014, 1.9345119921244354, 0.4262206653129433, 0.20295534040355395, -0.48360720167535987, -0.8795980887734907, 0.28491279683032267, -1.4622929583581799, -0.6641870979260474, 1.1655659077078986, 0.7246061869880562, -3.051415181904064, 2.3633739274209264, 0.6072292543362992, -1.1244907113551184, 0.741000882809591, 2.363782191656111, -0.7463213785876587, 0.44195081661196994, 0.5748309777315854, -0.9004352784035611, -0.7997945717528848, 0.2944617376436611, -0.47143571399930245, 0.13513925790550618, 1.10765340257975, 1.2410542617447715, -1.6445361021632565, 0.09096531044698473, -1.0143249381187187, -0.367577020290589, -0.8989417906987193, 0.04652505221299422}, {-1.8650786176396272, 1.355935731742244, -0.22492626603752525, 1.2926151327238022, -0.03448151765808182, 0.2739782188904215, 0.1653488729719567, 1.141165493727663, -2.094624411736038, 0.8229064746994059, -0.985728701148239, 0.7981857282189958, -0.5984343205197263, -0.8617158800329097, 0.41572483562648654, 1.0081692074127642, -0.46813786382424366, -1.107521757383305, 0.21132130885289857, -1.24175070510368, -0.6096978987411905, -0.34659798602755376, 1.9717881489233096, -0.1827762170125017, -0.6431950771876056, 0.8710215843252221, -0.3723587416220891, 0.2563916238022155, -0.15048776247067777, -0.24298386889447332, -0.8396081218179082, 1.413658037758269, 0.1878738272324514, 1.9734527475497645, -1.8627988720146007, -0.38650242605192897, -1.7119983455129495, 1.2576348345518389, 2.033117826950271, 0.21594823874964303, 0.08272433971079966, -0.6462489663721132, -1.1964127400476865, 0.4641849016540114, 0.36594158211294797, 0.09547264954009295, 0.4713474986713561, -0.7742194512972719, 0.694251227556233, 1.5208263818544645, -0.5255879412998441, 2.0704947652577723, 0.9117985924446571, -0.9689652824436925, 0.5814238011457477, -0.9605139178506302, -0.9437765979554253, -2.0517444594554677}, {-0.5065805471612058, 0.6781223519168946, -0.9257982075552523, 1.5721591608590229, 0.42107718227548907, -0.1453499088327635, 1.5293075303512085, 0.11072979972551052, -0.587905833385939, -0.6149878564537543, 1.506604019164964, 1.4928742871539515, -1.2086346528435212, -1.4764815497914006, -1.12081262844518, -0.4729253820191645, -0.42333928043417585, -0.6889998024056065, -1.9867108675047283, 0.8142931596637871, 0.6973243868863718, 1.1655917700889218, 1.1695319590796143, 0.7447428100559788, 0.9658301173790882, 0.6428777975837576, -1.071074460830576, -0.6636291117034658, 1.4137131922940456, -0.056028083480926805, 0.14390175927584267, 0.016640022973080152, -0.5238323015315124, -0.7259886928170495, 1.501311271486356, -0.5611720827998302, -0.8566024968815279, 1.6711375205820196, -0.13272913288442362, 0.7508310220172557, 0.4168101754989589, -0.06258769366303843, 0.33176277750367894, -0.9585397038834242, -0.030101608330689457, -0.46231352424746613, -0.33285550972531625, 0.2300521542634422, -0.415139290142461, 0.36567313877753865, -0.8658924404887789, 0.26854535946858654, -0.4367059027543965, -0.8519603041070049, 0.1575255789915131, 0.7113736166471839, -0.14937349715099685, -0.6717016755940918}, {-5.36920226669414, -0.675745795235432, -6.4443031061239475, -1.088452414544515, -9.878546184182342, 20.151956455660013, -1.1693905085494731, -0.020095850493799142, -7.286761783866115, -6.82717136069809, 0.03769720974025146, -8.878225897311635, 11.282010734290619, 7.896324936178049, 0.46043128540285927, 1.241932807266912, 2.166188526298921, -3.0023509119442404, 0.2390677374274837, -7.383228879555951, 1.1445343260521437, -0.3918066492034996, 0.8366045002881254, -11.852305329758734, -0.6822996747028759, -15.978188381328534, -0.24875847733009573, 1.7058828406093989, -0.988980492499273, -0.6142811805792884, 0.6742278865498355, 0.2215180039893009, 9.580051606033859, -0.5397681433050849, 7.6542262587709455, 0.41591865871140804, -20.513377276264137, 6.836950491493596, 2.138124569710315, 1.2132893304667534, 0.21910372149847163, -3.1293604903453556, 0.12277979282224712, -0.6208664015909696, -0.4803805753635735, 0.11348421857591445, -7.264716604745059, 0.9556606019787319, 1.5274225099442384, -1.666708186247508, -0.9475630722916525, -0.8810599798812512, -9.738506526552612, -1.0816584161967149, -0.32879623099702004, 1.532644844675832, -0.6596597525580682, -6.031367728349216}, {0.7396788755258522, 0.4148515766557426, -3.221522850802418, 1.3718376344058278, -2.1456700403622158, 2.286734267248324, -0.3999239113445582, -0.1534419409614413, 0.07664385184630906, 0.16071263758561669, -0.8969233191295543, 0.11931843890498063, 5.8333067068552635, 2.606817963817769, 2.481542758351101, -2.351624481175536, -0.1327237033356054, -1.3809465423171694, -0.6974129644749082, -1.1661352810272243, 0.9857612763644538, 1.1800086098860751, -1.0950045149557834, -2.4502885127750713, -0.6292629662748994, 1.3365920208725355, 1.0028348090086896, 0.019888582222531388, 1.77968209178856, -0.6014312640915912, 0.8909884572302925, 0.6974485956838998, 0.7993374553260454, -1.2807242606633602, 1.5741135997601488, -0.5596906212068896, 3.2586628201751595, 0.5206598172270002, 0.9127024836641585, -0.1729890667556186, -1.2090714862154421, 0.2694768378323237, -1.2379761742874626, -0.5765882509648415, -2.219526489864634, 0.6312279833372562, -0.8995470710715678, -0.40984451968026253, 0.6386052555297304, 0.46981391858144533, 0.8488210052802702, -1.052393770480459, 2.743667007231665, -1.677343483743833, 1.6341226256927595, -2.2681281726445, 0.5640764403266951, 0.8525904007449753}, {-1.442905449988865, -0.6342024473596617, 0.12567169479285556, -1.1236405791111057, -3.4988479729172544, 2.4169937987758687, -0.8317855070803686, 0.6277075259930677, 1.0977366844370595, -1.3693247375917685, 0.05132982802030142, -0.5494267340072073, 0.6939854934351696, -0.19180088285710295, 1.2581771857093793, 1.5389664966827754, -1.4200306771561246, -0.3826508891604107, 0.9032721708237789, -0.8084571819808807, -0.009616382687920047, 2.5202619433039057, -0.15809099209423177, -1.8331771212775114, -0.04095819567866043, 1.1190026140448086, -0.33392920220918343, 0.10912749468605333, 0.6682060991180631, -0.24006921558093453, 0.7750631023314163, -1.1347882811400767, -0.22614220960968287, 0.34012273826600714, -0.4065153440435242, 1.2760579819464182, -1.3396525455590735, 0.9194418327576063, -1.7994345942372607, 0.9347643927290693, -0.23079201612280167, -0.9883428340279442, 0.47823776150876945, -1.282960669840802, 0.6664384515952483, -0.02228222070938641, -1.5485411391923447, 0.1627629613462716, -2.034573226552241, 0.20516344855522817, 0.2946536424802995, -1.2588283497449304, 0.17670748529078847, 0.5183497139295135, -0.7359131385435057, 1.47005929045804, -1.2902209562895561, 0.6797718509911077}, {-5.923500169935252, -0.6321080547186273, -11.665588384584135, -1.641430150537771, -8.937115375965856, 10.76905706765891, -0.9370952194791489, -0.3223468562317366, -1.9690357421363296, 0.715767701698091, -1.0803778322243354, -9.009178165088048, 5.1604580572068475, 13.452242965828498, 2.7781746977264397, -0.5587419221979896, 1.2203590199471148, -2.8428696460618954, -0.15454593382909626, -4.541884615117272, 0.9100942315006098, -3.1363745521816884, -0.09920262813610133, -5.70054036145736, 1.1539535726435342, -16.88958899140712, 2.0269308343608263, -1.537569213215521, -4.787487005580589, 0.20853016295949175, 1.100230375040078, -0.8575215075767577, 6.625704657705049, 1.3177084620972834, 1.4073115218997752, 0.20171116279276666, -17.48247585811543, -1.2504350115253435, -1.8902080720613734, 0.9375129666104975, -1.0203601441239103, 0.37616368826198027, 2.076385695676929, 0.8638657666970587, -0.6583508191566214, -0.7545237909242443, -4.98001212258217, -0.05830614030887841, -1.5431128893666763, 2.4739924791795818, -1.7647311597096742, -2.5447122829254547, -5.59910846447889, -1.2366228429795185, -0.5471454728913933, 6.2692089394652815, 5.286552785879328, -4.090243048020243}, {0.29553114837177547, 0.25007160701497694, -0.5512447297743119, 0.7607428797590666, 1.1367534093108975, -0.053388240107376084, 0.1919347696495862, 0.992508057407226, 1.5412863281152933, -0.3285025539467698, -0.12374484516991777, 1.2563785498058995, 2.0492410793645632, 0.9134203277128308, -1.306209296171635, -0.03071349567075903, 0.8762329916139302, 0.20217410376787545, -1.0163905555654784, 0.6089830207349961, -2.1387172099017486, 2.254093105785778, 1.4215655761313022, -1.1087177206084848, -0.7954843142221933, -0.7574697305105067, -0.10180410569526409, 0.1438028933831827, 0.21877136890653517, 0.012055601189398168, -0.5721294502716494, -0.7822418799429816, 2.829421380008395, -0.5454587739492178, -0.6335961024232706, 0.6083413879614326, 1.1984529448588095, -0.8894255569332069, 0.551346545431406, 1.8651295376768842, 0.4454341817109102, -1.560155679565534, -0.6235391608610578, 0.8569563015591118, 0.2473324972202854, -0.09812427058260713, -0.3532106665193218, 0.2709536455187106, 1.0441163321830909, 1.5710821081818414, -0.5473727223602055, -0.3633921249472758, -1.3498488168832055, -1.155282578675234, 0.12006838393366827, 2.69562659811787, -1.3820673717259113, -2.181506500246882}, {-0.2487963204904111, -0.1766205386856261, -0.13246176360544412, -1.1305753139395378, -0.41514528316725696, 0.5684517608317939, -1.30740236307373, -1.0240538160543142, 1.3751757036484349, 0.9808763015129598, 0.5444014190783684, 0.9206259282068116, -1.0163629195670991, 0.3148065843451629, -0.3991061763074862, 0.26623309370343795, 0.01832693887736413, 0.12553268629046269, -0.9469282343024091, -2.7212456834269836, -0.47456822907796725, 2.03755513995153, -0.574214471079359, -1.3326263911569771, 0.44539837404151994, 0.4347417976781278, -0.9961938738095787, 0.9518276259824482, 0.3267382892521874, -0.8957380724405062, 0.7144874713575227, -0.009660080264131399, 1.1394049485279099, 0.5104408661819848, -0.4080418281256669, 0.6818334168959911, 1.5477090984224149, 0.16315962974696863, 0.15737841459964638, -0.8142193246331156, 0.6812502051831912, -0.8779747086236261, 0.4029597473159432, 0.07594060409868697, -1.4703021240420369, -0.27315420084503383, -1.0335824074736621, -1.6514113508230015, -1.5004186481147517, -0.2127576634067485, 0.4181153917237161, 0.7004034914824401, -1.2135334316993003, -0.40732473991976725, -0.27564855155975077, -0.7942688873811484, -0.17079756547866318, 0.9447772797055833}, {0.9577082337644857, -0.1588587613034448, -0.989800505714943, 0.8006259541287348, -0.22594075613887518, 0.7951179047014973, 0.5536511450312591, 0.44496243865412227, 0.40424486017066014, 0.27687208311634315, 1.4225104508352542, 0.7991754471925857, -0.8663942520254453, 1.3977594836353802, -0.1750315263404171, -1.067529462062306, 0.12502899645145288, -0.42573405647417284, 2.5379212370457225, 0.4158927967038536, -0.5732195330937869, 0.26145370994869643, 1.2860785459608772, -0.5789147514059272, 0.9147199325517749, -0.31350063416851526, 0.5299298218544524, -2.6324829966381977, 0.06310766058878617, -2.185667641364109, -0.9724326472340347, -0.29304057520864324, 0.5469608666397752, 0.6599900720859189, 1.024055720708561, 0.07770759284003693, -0.001420796569558475, -0.6923163025445851, -0.17030696148708374, 1.2985686515108472, 0.46959916525316425, 1.4292674193159303, -0.4136375269732454, 1.4626009221066933, -0.4161504348840388, -1.1436239210847814, -0.8252195644931153, 0.5508491589092459, 0.10259208534579345, -0.29523854592776116, 1.9598886448577884, -0.8768815265965296, 0.9891370019392174, -0.6997261656850371, 0.9047193537249476, 1.3050781233557442, -0.9303017016445609, -1.0935877221011405}, {0.44982548995488786, 1.4985174378325525, -2.0416394217949687, -1.0661179478864902, 0.18294865143480293, 0.27651306789451735, 0.12286564625506032, 0.10059693404736626, -1.1312972778621353, 1.2121366065441121, -0.13991815591166973, -0.8010478118334712, -0.5837403721031859, 1.6234145709725807, 0.08936213566226067, 0.8510890006002816, 0.9147141807523299, 0.45149465655860777, 1.2247346399721764, -1.2264705088344978, 0.6406437595793837, -0.8272833377315185, 0.10581115906834596, -0.5841561735078379, 0.21208209031349282, 1.126718302888102, -1.6973939470838069, -0.9954393826673695, 0.2972140098728298, 0.9438502081189012, 1.8801451069480324, -0.06757057477745515, 1.52443973431071, 0.8397331950405679, 1.601730611285791, 0.3008509906804576, 0.6005105939432416, 1.0174201544824641, 0.16404185347120068, 1.221526720142685, -0.6345306878606668, -1.1555014906609644, 1.5569990006281498, 0.26453139171878537, 1.2682604185849107, -0.23691794027587076, -0.9829994415974598, -0.780365475627518, -0.9302995671808606, 1.0234989035602746, -0.9879906414319352, 0.3529289845156331, -0.31915099385997475, 0.10537771308359407, 0.2653935287964913, -0.03384613170155549, 0.4257912862615869, -0.8364707024304748}, {2.950164213605799, -1.0260008250023376, -3.281147469623133, 1.2408715187999348, -0.7938049769663517, -0.08150757392452065, 0.8154121470059725, 4.139851978533261, -4.2140020923894275, 0.7814624873681015, 0.4958873713871082, -0.2271605057766086, 8.104073580198547, 9.683487603279588, 0.41771494568341944, 1.5670502802306012, 1.2604631436766476, 0.04631437402982076, -1.075940784398747, -3.1050694671829686, 0.5368437542528427, -1.6855855130852406, 0.0402767698968343, -5.675447050126289, -1.0689068075970738, -1.489177438663597, -1.7081111787121797, 1.3960399485644117, 1.700671663239865, -1.3782970263462762, -0.113561379856691, -0.35791541608181926, 1.1470060293199913, -0.7708460032661895, 0.08609840496291145, -0.36014818327136544, 4.902793371414188, -0.3897452196651168, -1.4221933980145167, -0.9653274090000555, 1.134215736782808, -2.7998680795528976, -1.8471124076255212, 0.04213208439211711, 0.8257149007199593, 1.7274513490296124, -2.376852209717053, -1.0315031013961928, 0.5314219931471496, 1.086288998666823, -0.6912142915932559, -0.6547884482982639, 5.894718728480826, -0.5978832215712331, 1.1726160538514396, -4.37840816390264, 5.874615788175019, 1.031902498752468}, {1.5400912988178554, -0.9091233409226955, 2.1208600127328214, -2.594429736195344, 2.0200905900170034, -3.0856748956085047, 0.049397735088255, 1.4167255321460717, 0.8793545674832193, 0.8223481250038233, -1.5769887631741497, 3.8211115249036136, 8.501039910396408, -0.02619815253806244, 0.19040510830858823, 0.1130020505557321, 0.369883385367385, 0.0483789268626391, 1.3671907542696062, 2.191656219900054, -2.921013124104312, 3.762435615919545, 0.04271362073933107, -3.6029643137676604, -1.3130072979038228, 2.7212926134312307, -0.8417250072164393, -0.2773967318348791, 1.708733358394789, 1.0211994216716795, -0.8307769404108396, 0.6111831909311428, -0.3918593051188554, -0.06645318283329871, -1.371676334876149, -0.516501904241543, 6.3464344753295885, 3.812838288593633, -0.3440273003659716, 0.8768633739385476, 0.26264676282579835, -0.46716463686316617, -0.25741620737201115, 2.4246542875123596, -1.3695671033060242, -0.6016592714320314, 0.4160357276871724, 2.930776965504897, 0.30583005324693774, 0.6004539521652669, 1.5774298680719496, -0.15216266820648505, 5.129313660162786, -1.7916870906044375, 0.5525107727567756, -3.6304803148120466, 0.4636801982995258, 0.9343405671932464}, {-2.0407248669009257, -0.12809343000084103, -2.9193202067943536, 0.8025803990261599, -0.08145363619578179, 2.3361170462181717, 0.51953281427569, -2.253255168716124, -0.8429879636847661, -0.9089112816067678, -0.8274433780992025, -2.260723276837802, 0.46569131448254575, 0.3267607853027469, -1.9602100431096106, 0.7503589979634847, 1.0418742347996437, 1.3948933341965295, -1.820269274521553, 1.6394972385947064, 0.37525601061456687, 0.24180289369818073, 0.9298452889595173, -0.7437677801191868, 1.0104921041020294, -2.761986827713059, 0.33548565655980267, -0.11729638923707618, -1.3965811328072957, 1.204820861628899, -0.31140803321706895, 0.07701785638747835, 2.3596043388470456, 0.21986669785395616, 1.632467145156242, -0.22935371905841506, -5.110130405242556, 0.9504622441624776, -2.1767346663982665, -0.24407673932336402, -2.7186830444609145, -0.6441548187006113, -0.24231557311565266, -1.3920527752128924, 2.102837315609127, -0.49358404646549164, -3.485140735982231, -0.6662426013808571, -0.3842223280913317, -1.4830601424595673, -0.4644947031970668, -0.6508876172237417, -1.531056082874281, -0.1747423302907291, -0.9300883415342528, 0.9676666416431465, 0.2083695991563544, -1.2616407617578913}, {0.2320886956370085, 0.6270464746796514, -3.867734553069327, 1.370538980966739, -4.27080949048287, 7.032871972102295, -0.990030368183481, -0.8728971222330877, 1.11914380754048, -2.0629648988084637, 0.1546665477875509, -0.2710892225829232, 1.5100300799898645, 1.3193955049833923, -0.7471477670890321, 0.7142466408075434, 1.912760702231703, -1.439075030805962, 0.6463703425661131, -3.7646011965166295, 0.4880891762599965, -0.3508912440287925, 0.5633647813093594, -4.164740423045783, 1.2969552982356864, -1.3233743587377698, 0.699113760997811, 0.47827253256425667, -0.765933219973458, -1.1059945393199877, 0.3448896745517933, -0.009530644302039983, 0.8303657106414508, 1.1940999657842526, 1.2044457317412303, 0.8050222567476994, -4.525367890434885, 0.6871776478914472, 2.9551984634156923, -0.32911408660339503, -0.37246232186044337, 0.8413805796583381, 0.7099080146000081, 0.23591579742815869, 0.7952292422259585, -1.463950314109974, -2.2183980483792114, 2.10349423422241, 0.6460363077643407, -0.005595739342629432, 0.45992590421206647, -3.146239848450866, -0.19964402237203344, -2.0923030158354146, 0.010245919090637592, 1.897841464242853, 1.4200557822797395, -2.4482566478045964}, {13.743894723157887, 1.256947530340879, 17.593984506961853, -0.1290139409868966, 21.16534513822607, -36.896836736993954, -0.5112346083871506, 15.119781511122959, 0.9496584128114474, 12.046208487569418, -0.8081285044684691, 27.58773529639528, 31.40222466369991, 7.804298371835948, 15.773054196147426, 0.6496656878321067, 0.41346247233013167, 1.217816810948615, 0.736082016875428, 13.094243630816049, 1.5521718706180336, 7.65481841527447, 0.1673299137170038, -0.9080876750211826, -0.15155884006989093, 37.98739282363818, 0.10935465881786383, 0.23047825882355796, 13.123368261797266, -0.9013470273255227, -0.5113460526238176, -1.4571499433264175, -13.757002966309784, -1.6220954711629971, -5.514057850075949, -2.0311651394771806, 52.81688507742883, 6.052277393435657, 0.8547404646966348, 1.5668366680937944, -0.02496327177285019, 1.9293889368767663, -2.8555944070880055, 0.6644369059008434, 0.4902491690026919, 0.5767250362348536, 15.692691024942688, 1.9906380829810075, 3.6431450151751066, 0.6049320711226605, 1.6819576608720137, 6.231605903658935, 25.031454409175364, -1.2195214516066906, -0.42615897169937267, -21.152887814392813, 8.295596759143965, 10.448344363220404}, {1.089966622997967, 0.6121135504516517, 0.519935208318552, -0.5307461323120036, 0.8647240122295788, 0.4782487309854193, 0.7998781468195818, -0.35200806246939076, 1.0352218715896564, 0.573055376536284, -0.8743211274058702, -0.8583140880014657, 0.2506937356834924, 0.37495370115829746, -1.067759286223988, -1.352105708543264, -0.578337980699582, -0.03621853176228281, -1.6259109770752467, -0.2162414340287665, -0.032323175612164225, 0.1283210269047388, -0.652831320190966, -1.3892924661463184, -0.16266895441791612, -0.09710104606700705, 1.343887553851617, 0.6812685266332428, -0.3361647028235791, 2.4977465785849824, 0.4382735747956145, -1.35223371556194, 1.0168100189508487, -0.15079867412089895, -0.16592243882472435, -0.2714443925955363, -0.237363154514445, 0.5208835306124884, -0.6945734630428952, -1.3994727886751932, -1.8678274272388744, -2.205741539285498, 1.037594321975429, -0.29063788468611607, 1.0388599863386432, -0.6806849433930061, -0.3430386259292731, 1.7960391989060767, -0.13073648493088716, 1.0885784564189251, -0.19108856832955703, -1.0943027243834893, -0.43068893562611266, 0.12021203914571274, 0.3045119858198669, -0.2365527945331255, 0.8168397268458918, -1.3665333482209518}, {-14.197396069743704, -1.110760169864624, -19.77064777852553, -0.8960819373910905, -17.66473041953342, 24.86786267398842, 0.9758236027619503, -4.12344961268443, -1.2388120760704637, -12.723863037618132, -0.6482131542163319, -25.819920273035546, 8.312258929413078, 4.579824730781327, -16.663265477993455, -0.8846642633360534, 0.6425392268829976, -0.01911005738306752, -0.2886452080801709, -15.708404354278839, -0.30208816677594474, -10.46984098683066, 1.2539739119344775, -2.373111745596328, -0.6548478510952978, -39.90736567751471, 0.06188708818462134, -1.746210736163179, -9.014557307800729, -0.1608277558996237, -0.7868527975949574, 0.9828215066771765, 14.052836831601027, -0.9359535198483816, 7.380714698703555, 0.9608233844242302, -40.41700499244866, 1.2934376227381814, 0.798914485759493, 1.6456293848644252, 2.255256020686084, -5.014845900522491, -0.787077710925349, -0.8124418268237555, 0.11281767935320075, 1.2670298936082693, -17.94025802757761, 3.7572986303278704, 1.8377113933255518, 0.13330794652513053, 0.0861618839313759, -2.5998700412546607, -23.431545167182474, -1.735248354855866, -0.2301368405087702, 19.29677822849731, -1.2186052539279548, -13.897945738688854}, {-6.468885426446649, -0.23040053828850843, -6.281522111339515, 1.7846872909689422, -5.0395233072620105, 8.452699479280415, -1.3706614546811806, -2.827909418325688, 0.5116123366301929, -2.5720894159605883, -0.04225634285873905, -11.073807859693046, 3.1511601511671454, 1.8929443809085411, -6.024765359704866, 0.9638122283563, 0.035803529856261514, 0.7665754419386359, 2.8525806117614985, -9.59608863806621, -3.4729927700560848, 0.31609933232535553, -0.7893314843968213, -1.2176137555597788, -0.9043615225102906, -16.557576582838855, 2.397877145675545, -0.9239303705323322, -5.7519942020812, -0.47964848050160996, 0.08771435692483008, 0.7331939012652462, 6.246190353128937, 1.241068312354641, 4.691768725426148, 0.20261748059585138, -16.669713613723925, 5.117090063710548, -0.12948486174654497, 0.994771934006497, 0.6718384997316172, 0.158804343775293, 0.04943672958772618, 0.39667974752549884, -0.14508441214786144, 0.1822900083555234, -7.968350276666001, 2.4649618894058327, -0.48074567264325485, -1.102548929985742, 0.6401637496954519, -2.0844630358399217, -8.209018803976408, 0.8833911310566499, 0.4988288939666776, 7.386164967098968, -2.758183986996453, -6.588686824767077}, {-0.37838219371202797, 0.6701305568580327, -1.3576807202364067, -0.29864713817145083, -0.18312141509411828, 3.1382487667935868, -0.5022386421340955, 0.16926816708865078, -1.1023475727098817, -1.6450286615951424, -0.5337790176892703, -0.6149023202229916, -0.6570432337262399, 0.6688757019082091, -0.33267917775630995, -1.1665235714132038, 0.6656538019831703, -1.5560307554489567, 0.667030241371301, -1.135928311904039, 1.2850172620347176, -0.21827291802461532, 0.8789778356996726, -2.464171025628423, -0.28755583770982135, -1.3942249101801802, -0.35378155305240633, 1.2500132697285133, -1.3459223883322342, 0.24943735046774437, 0.0766479979600032, -1.8761481084731075, 0.38725201445132335, -0.9803851018564804, 1.3768639221110914, -0.29957228204460934, -3.6739565304550834, -0.529768676718746, -1.0335502658349711, -1.2407234573928654, -0.13588657348144562, 1.110793077796935, -0.3616963076368705, -0.314693934551497, -1.0485267173894512, -0.9155429927838695, -0.03135358202352802, 1.597281959217575, -0.7484358326329041, 1.2370709345482573, 0.271058158380872, 1.028805404779833, -0.47249769570403066, -0.8631173484465284, -1.943926051417932, 0.8322311899417734, 0.5229363138740971, -0.4491950576618825}, {-0.7248248327740686, -0.5673111951382506, 1.4702059156331244, -2.6645690202592474, 0.10486342163132593, -1.3905338754265815, -0.4585480030778733, 0.1871455601931374, -1.3597973206151024, -0.4471562591360367, -0.3824305141868727, -1.547952273689399, -2.176167808309845, 0.4875947634531661, -0.06661010644962033, 1.6465608926517117, 0.9343121253615548, 0.6362206919303278, -0.7563325792700235, -1.0463491629205544, -1.5006058852454158, -0.5761982517542297, -1.5593173465034798, -1.1024311888459677, -1.299858751375963, 0.5747157886405558, 0.3413758598903514, -0.5392390993711482, 0.2959890926843229, -1.4273241119485214, -0.17754617832974773, -0.7192824822151919, 0.031931276118230975, 0.4245806062894684, 0.03905830745001543, -1.778829263548898, -0.9026711277220274, 2.2326231475839102, 0.5688467835412481, 1.5864544962445064, -0.41212892982642296, 0.07609764359850751, 0.63976931631035, -1.055189635021663, 1.4692911010370842, 0.2799450044024578, 0.7962733827911455, -0.08902276004416523, -0.45573797149212947, 1.37338525639188, -0.09182792839912127, 0.395997260973924, -0.8029884771967035, -1.1412288308525524, -0.2843825508212794, 0.029496888883734328, 0.37740703992157965, -1.2422028724752334}, {-1.9475786271719036, 0.06410890442994269, -7.955738817180084, 0.5863388062767758, -8.180089728492685, 11.491826737427349, -0.2160368167896514, 0.2147321972054708, -1.1530076296301637, -3.1966079846546953, -1.0242114599126477, -5.482479667052554, 6.3480519391416275, 5.719375351051644, -1.793788279806764, -0.7902958600324843, -1.1466277544712256, -0.9253250867789116, -0.12311915609459698, -7.444703774745693, -0.6573747154048233, -1.3008640310547266, 1.9634413408639624, -9.442496878242768, 0.8719790744836574, -9.771728083346757, -0.08485980837876497, -0.3261831877582238, -1.9940959724064968, 0.5753390689450294, -2.7898714604722006, 1.6082362645513466, 4.465952451461035, 2.0692128810136556, 3.236857007751392, 0.24807262093604518, -10.701987657452403, -2.7858868539566934, 1.836262564499446, -1.0511092269858258, -1.5928318782121562, -0.23932481224227195, -1.9746982681412708, 1.5237812017909018, 0.3229405623392661, 0.5117280666643726, -4.926187429643958, -0.4237295887993715, 2.9289441843862987, -1.5879144279937674, 1.4258810212622195, -3.0688348156523118, -4.096296177875122, -3.973541255865949, -0.7641775859023109, 0.40236394472056, 0.0940028588804657, -3.7595366517347464}, {1.3883740695898914, 1.109127064154751, -2.056927076075354, -1.865337209536146, -0.94914309113734, 0.4238940253217482, -0.11531926328965983, -0.07215833396760789, -0.6371333019925044, -0.9841777555874044, -0.1665228347229763, -1.1614252390011561, 3.003543382451294, 1.3001340377433732, -1.1025157596453035, -0.6757541356818985, 1.5400637924019047, 2.998570740954246, -0.8738173585652925, -1.1731330796840185, 0.8298485827121184, 0.3118699629917021, -0.15860015074023495, -1.1337890619672841, 0.54146760935494, -1.3725417084914737, 0.6963373045353186, 0.6657996717461313, -1.522592469928418, -0.4831507399700679, -0.6002976320476594, 0.18713964257162302, -0.09499716957737328, 0.49405039394054245, 1.0352076939397354, -0.6115370300350994, 1.4231204450887593, 0.1385934975095874, 2.0106349628990867, -0.6328265199951808, -0.47135860626920006, -1.7512212570511683, 1.38418289184633, 0.24685238756570357, -0.6207515081528456, 1.0916561536876506, -1.111070621211356, 0.5707707401185163, 0.081847357341727, -1.2032501472827823, -0.6374858494024807, 1.147854047493839, 0.6571399767666968, -1.5985040000501392, 1.5896617041735885, 0.4734808326966609, -0.7268950032988015, -1.2273115864963655}, {-17.643056518721256, -0.8699785812554047, -19.43611689247568, 4.429650874358034, -27.43344925476307, 